solver_type L2R_LR
nr_class 2
label 1 0
nr_feature 88014
bias -1
w
-0.1954742405150196 
0.3489384246700711 
0.7330210052090123 
0.4339401015917842 
-0.07546850301114109 
0.3489384246700711 
0.1270405247858243 
-0.4239746256161849 
-0.06723471340172532 
-0.04983254728883517 
0.02642115432215186 
-0.1656373216509986 
-0.7630209072709626 
-1.173981257137144 
0.270989810777104 
-0.07077487196490337 
-0.09948724459705977 
-0.4503856480316851 
-0.1361848007353555 
-0.3442408830741572 
-0.4168171636234984 
0.3489384246700711 
1.787182520050481 
-0.1349509209664911 
-0.1349509209664911 
-0.1797855775216642 
-0.2065834016994631 
-0.2007416074419006 
0.1698721176603015 
-0.4284098387195666 
-0.9300573343471531 
0.5810690885741505 
-0.3528886091779728 
-0.1818647142990817 
0.4543325387115105 
-0.006536416404496967 
0.1142715893334539 
0.3138939814501325 
0.09956736816239187 
0.2369740080035703 
-0.2005512063935882 
-0.2481357271549775 
0.5904051372881375 
-0.2024189163104558 
1.567516749631168e-05 
-0.09522613512987191 
-0.07999779133660488 
-0.206541337738906 
-0.1378815675005955 
-0.2778018109596112 
-0.4029673594877776 
-1.968987275821416 
-0.3032367201215168 
-1.014170148954968 
-0.2256381770919936 
0.7290611363349172 
0.5245864134364302 
-0.01201226081708282 
0.09035908105787813 
0.3806789754931706 
0.4270175991216082 
-0.3231973130390915 
0.5783440334428738 
1.961517713685504 
-0.3987646260742834 
-0.9248417947396267 
-0.113198619111888 
-0.113198619111888 
0.1533084154814146 
-0.2019470318768858 
0.849876048349716 
1.15022686821581 
0.2048022766711026 
0.4603565572071374 
0.1592510974034008 
-0.113198619111888 
-1.454399863798353 
-1.910435743915547 
-0.3248507169218064 
0.1868786794622032 
-1.150588879500866 
-0.4080906694722987 
0.3644051784450533 
-0.08115121274508752 
-0.9508247739084605 
0.9170540662942921 
-0.3808256933103146 
-1.288238771915853 
0.01500810429375475 
-0.7171472863101711 
0.348878041493552 
-0.4017483039828461 
0.2049748849388192 
0.6900366939527768 
0.4358788969837136 
0.545472737821817 
-0.02998112195819386 
0.3635170768948085 
-0.05583084627087907 
0.01724597089486963 
-0.2741704728943916 
-0.02756192027722806 
0.9869728397108211 
0.675692689850857 
-1.177063893059946 
-0.3324406960469228 
0.3813163854448992 
0.17701541556085 
-0.5679432556966926 
-0.2117824423283839 
0.2148805157067658 
-0.8741180354922349 
-0.07093040664907752 
0.5613023807589174 
-0.1033720774936564 
-0.5582808000328712 
0.3116302744313906 
-0.1200267282044429 
-0.1624597826171506 
-0.01451554404391973 
-1.467220895453542 
-0.2133137707346513 
-1.565693910534407 
-0.5165238747287026 
-0.0009834554093948282 
0.5895943448324806 
0.7157404724109665 
-0.8181682520991483 
-1.388935375042698 
-0.3214314117959144 
-0.261895459591084 
0.9452122107897721 
-0.4440886022044685 
-0.04155874671542313 
-0.04328157411617654 
0.07663352708539284 
0.3093289594828849 
0.4919910800106767 
-0.03017899972198934 
-0.4687541565949604 
-0.08239972632917678 
-0.680817230604208 
-0.03017899972198934 
-0.5388781619806127 
0.09908066266553689 
-0.03017899972198934 
0.2723639995043543 
0.2151114974998793 
-1.684836496679101 
-0.1522363445925334 
0.06945410378284249 
-0.03017899972198934 
0.7973203381343271 
-0.566948517634175 
-0.09175463369253846 
0.1646792581193705 
-0.5533650113548472 
1.019740761190557 
-1.119716167052028 
-0.06362564275527188 
-0.6191117160889964 
0.4843037359460436 
-0.4168970162678015 
0.02281390431642445 
-0.2432538622321021 
-0.8584092537965103 
-0.2611883281294814 
0.2574441947011271 
-0.1746090712302961 
-0.02136030265572627 
-0.02136030265572627 
-0.1037106400869089 
-0.02136030265572627 
-0.7238084747170819 
-1.114467202091793 
-0.8467390195377732 
-0.2370705705416812 
-0.189973072115815 
-1.34404351825875 
0.1664720835462994 
-0.1118525313108404 
-0.03432172473236916 
-0.05444686725029656 
-0.02136030265572627 
0.02917728434908106 
0.6963930406970344 
0.07524018326757606 
0.007547521440330489 
0.5243450855272153 
-0.4181361577996047 
-0.3892010000858975 
-0.2501933978330687 
-0.5292641266549479 
-0.0184039833732032 
0.1664638447222203 
-0.01577778934363058 
0.01728890122870237 
0.4093206612185335 
0.04345433787703644 
-0.1728421969322858 
-0.369988030157227 
0.4682613309891329 
-0.103471001637528 
-0.2548214043886789 
0.07560633142650272 
0.397706216227573 
-0.08777729008011204 
0.412057491203122 
0.009342959132180875 
0.1177264272756014 
-0.1062517803104085 
-0.02691640748980367 
-0.0293551239478636 
0.3919040531574783 
0.7138295302204827 
-0.8517312188075464 
-0.9902729803033982 
-0.1521470473681843 
-0.06525848350720373 
0.254603107111949 
1.208215417318486 
1.56546471366426 
0.3362626440172402 
-0.3990852720388547 
-0.1879043903624474 
-0.1764098589185505 
-0.1764098589185505 
-0.120159505010142 
-0.1764098589185505 
0.6308411845222677 
-0.1436779897251859 
-0.7980368797549001 
-0.05319235486171794 
-0.05086402433935652 
-0.2470879083820457 
-0.05319235486171794 
-0.05319235486171794 
-0.05284451526188364 
-0.2699695554415458 
0.3223977136461169 
0.2711717826941021 
-1.39894770511496 
-0.2222634320645028 
-1.734264496829601 
-0.1376602469539799 
0.1823570849782589 
0.4021719523528899 
-0.004460133495846333 
-0.05319235486171794 
-0.1031350111821606 
0.1933462078292728 
0.08446191393069924 
1.287826714905838 
0.5106725053316042 
-0.002285290175409155 
0.1864665955452727 
0.8976046888743582 
-1.601832733058664 
-0.1732580088080881 
0.08878550731152593 
0.1084174681352933 
0.1788089089932904 
-0.2866196398211238 
0.2756691489897776 
-1.423420332736364 
-0.317008013794954 
0.5968572780399842 
0.09599957956145289 
-0.05319235486171794 
-1.145396932186354 
0.1723632953872008 
0.02601985980627926 
4.823900374658731 
-0.1208575217059202 
0.2397893820172724 
0.4016739142435874 
0.4589096996240083 
-0.6514488320780825 
0.1940633820792134 
0.5139112324431233 
-0.4793687888668995 
-0.3989211225098716 
1.479536684842564 
-0.5409066532809208 
-0.168860607446052 
0.674778422865198 
-0.2413141842875013 
0.3837088909969552 
0.1345636932207534 
0.303467213924327 
0.01785674972263666 
-0.2720066643736631 
-0.9781766341124668 
-0.687426282987267 
0.01785674972263666 
-0.2831544195993518 
-0.002683606593646214 
-0.1089320830308018 
-0.1361436746275978 
-0.1292451439265871 
0.1295073200141612 
-0.184352477030958 
-0.3139387503461163 
-0.824913971820792 
-0.7687007456392613 
-0.765061625481039 
-0.04999963755881075 
0.1748676848196362 
0.1425960267340486 
0.8498776032857253 
-0.6516793993161142 
-0.03627210007609748 
-0.5845908791724392 
0.5358553447813907 
-0.3718610666977334 
-0.7519293992030339 
-0.4565141244675384 
0.2772496502200253 
-0.1233056010251493 
-0.03627210007609748 
0.8841080868693471 
-0.03627210007609748 
-0.599686672746839 
-0.1436501050889885 
-0.3881892825201997 
-0.6968556468891917 
-0.9634997128371644 
-0.09445947374654967 
0.1589426929648692 
-0.3124815833400072 
0.2268771938934412 
0.3995111847665894 
0.1182359819360909 
-0.1608280608053753 
-0.03627210007609748 
0.6433692706753122 
0.09933966834450594 
-0.2771126208172449 
-0.3524121837473482 
-0.2591648096305423 
0.4625969815191048 
-1.12554321842052 
-0.3918569491253855 
-3.492035374990581 
0.05547320275860605 
-0.1803425471291192 
0.1553755798909069 
-0.9808318582533585 
-0.4935450405280707 
-0.224178572875696 
0.09320458295585182 
-0.563261531512648 
-0.4256371631764025 
0.07258087631625885 
-0.4032943551223189 
0.3438199581205483 
-0.1251266815081742 
-0.2996636578885363 
-0.2072839851044534 
-0.1013862622592017 
0.2173895864007169 
-0.2029518572925072 
0.4940518172563153 
-0.5305977907038678 
-1.098246297280141 
-0.1161716012849447 
-0.3305485621257792 
0.04227836403404191 
-0.5177199252137817 
0.1621363238095723 
-0.3743906192610947 
-0.4000520778180557 
0.3169192980141865 
-0.7024550182280523 
0.1376792354200642 
0.227557884644252 
0.02837271345950605 
0.02837271345950605 
-0.3519618399277031 
0.02837271345950605 
0.3179909283486609 
1.648088423902515 
3.161750770218674 
-0.08200423536356902 
-1.020541645746604 
-0.5669911001414975 
-0.6888578855530822 
-0.09228942198702877 
-0.6310051746782314 
-0.1653663729230811 
-0.2964187488076506 
-0.3580184679629494 
-0.05990702159257968 
-0.6654747831369399 
1.773902321942136 
-0.06515097253094544 
-0.03274005798516261 
0.3073990423953424 
-0.09960959412716811 
0.4418235155996184 
-1.132297450077218 
-0.6344696581910534 
0.2709404178777298 
0.2377449244875832 
0.2314860230671569 
-0.5464112583444278 
-0.2147825203234467 
-0.1503409978096225 
-0.03499651667122376 
0.04773619622195879 
-0.152835893887803 
0.3816446229722619 
-0.1047971618538162 
0.3447734264410161 
0.2729087102390585 
0.03974746637411695 
0.1566193119737856 
0.9397952728633883 
0.4036746908351821 
0.5268643721887972 
0.1867331529971808 
0.1932779510072553 
0.4208244313950754 
0.3498925509920642 
0.2234730790807631 
0.1722135630365288 
1.086360520278831 
-0.4731312698185918 
0.5323866680099629 
-0.2287453080691376 
-0.06909323295845521 
-1.154447062460594 
0.3132869359423729 
0.2943004922623966 
0.3231934102570803 
0.4971520800454714 
0.1216425850781315 
0.05762571164802859 
0.4245060186921959 
-0.3052241264565663 
-0.3141169959409084 
-0.2839349986732414 
0.8571873539979815 
0.1394462561735318 
0.5193708429510611 
0.2640528331116112 
-0.3052241264565663 
-0.2030614877961105 
-0.349069151005896 
0.09547871032334215 
0.09547871032334215 
0.5721772642795858 
0.09547871032334215 
0.04126593887183475 
0.0572949528195439 
0.04223008835242127 
0.2239172210833843 
0.5575780376242389 
0.1241297694671715 
0.09697060155113504 
0.298434279828575 
-0.185391243007383 
0.3629109567086435 
0.09547871032334215 
-0.3147196751714251 
-0.9364757453107033 
-0.1986380542297864 
0.139266653630639 
0.01103972881214152 
-0.227356197310354 
-0.04705379642296541 
-0.05063892157957849 
-2.073574566328291 
-0.0179403564368104 
0.5337166326113746 
0.1097041596565566 
0.4986752751409069 
-1.309650442235134 
0.5379318111137863 
-0.1671245956191448 
-0.2669050296380036 
-0.05556633571170327 
0.6515942629496699 
0.08365324377966801 
0.03444396070739299 
-0.3977844262499565 
-1.039243022571685 
-0.9529078179856786 
0.0978632356464728 
-0.1771827990439393 
-0.06526346961861101 
-0.004439969796598363 
-1.046818973680657 
-0.5580142963107826 
0.3245088234184599 
0.2769601698530333 
-0.02992285875455578 
-0.1705062697891055 
-0.004439969796598363 
0.06814128161724367 
-0.138121621113632 
0.5357987462212433 
-0.2314233561518311 
0.005301416018889475 
0.02949142713880966 
-0.1059314051661161 
1.524088224171592 
-0.489482383619355 
0.5336421074508155 
-0.3112779141272851 
-0.05245889745729406 
0.2754788499412884 
-0.004439969796598363 
-0.2731776007972921 
-0.4865809705977469 
-0.6327087366074512 
-0.03659402917528321 
-0.7440567234782638 
0.2985615388114614 
-2.988588503853097 
0.135372911754478 
0.2870859674735621 
-2.556913512403219 
-0.759878426086088 
0.5189986716912622 
-0.4011368448765157 
0.5349106538399724 
-0.3973925701130974 
-0.4460182214851948 
-0.3345466686056009 
0.1459663590174961 
-0.1507982793492872 
0.4376283809775364 
-0.1944283426913901 
-0.1507982793492872 
0.1295409861942825 
0.8374440258887419 
0.06623370478927094 
0.3077126204501224 
0.02150193262424011 
-0.1738162900848829 
-1.168729151953141 
-0.2716875665269598 
1.275985617764414 
0.04055788930611798 
-0.4419364675118465 
0.4727065439225679 
0.6030668742735673 
-0.1447874878076083 
0.6069397272370046 
0.2622713753726267 
0.288938964245399 
-0.04785666219307763 
-0.1043752261026903 
-0.2892011758167638 
0.2830415873445464 
-1.478748303909357 
-0.2299866859976653 
-1.576678906130767 
-0.1419881856876417 
-0.1039356018400126 
-0.03780945827913787 
-0.07068478142203997 
-0.9252960029333807 
-1.377169678025737 
-0.1746413591139957 
-0.06509410860976846 
-0.1473319972783496 
-0.824235532917965 
-0.2450050267684263 
0.01918603892962154 
3.140766234643241 
-0.4620332992407586 
-0.6152996410997852 
-0.6053347609292499 
-0.9716112241782686 
-0.01062306953238602 
0.4765108773147803 
2.843907374046311 
-0.002337425505987275 
0.6541907282571967 
0.1503155811499981 
-0.7458653907908952 
-0.235616665292163 
0.3670726237059778 
-0.6056609306575804 
-0.005564850464720279 
-0.09215558489344206 
-1.151088964251734 
-0.7587796172433905 
0.3512666204444689 
0.3765232116799831 
0.4855777716720863 
-0.002337425505987275 
-0.2321605795619772 
-0.07755482493588486 
0.5458186666524392 
-0.131864090501015 
-0.4665674014051305 
-0.7138518781294034 
0.002110472165594153 
-0.3812246839279403 
-0.002337425505987275 
-0.002337425505987275 
-0.6508885112271188 
0.005477229893502935 
-0.4570973880380358 
0.1636513792799671 
-0.004403211499338559 
-0.193938070394651 
-0.06502660518730428 
0.2207693221138277 
-0.5550004304077391 
0.01025791634273513 
-0.3094723641637833 
0.3562796504633415 
0.6959774236891145 
0.3877137361151463 
0.661623552589292 
-0.3044257885880289 
0.3981261424623324 
-2.09379675848451 
0.06514385472981622 
0.03273163937381128 
0.06514385472981622 
-0.1658892120913629 
0.001602332962528794 
0.09879873479796916 
1.770464817009014 
-0.3002262416980166 
-0.03907638945647968 
0.4802613161220457 
0.06514385472981622 
0.3083606799176139 
0.03185537666430879 
-0.0659119760799038 
-0.144357278968754 
0.8403808508565574 
0.01280391828408316 
0.2299001209803169 
0.06514385472981622 
0.04676711331787197 
0.2382330692179366 
-0.2501722183024945 
-0.3812456601518674 
1.016520580050377 
-0.06297550926966611 
-0.51992907889878 
0.235386610817664 
0.1902314017799316 
0.2635857935602216 
0.04260597205813017 
0.5232818985051377 
0.2369083984275718 
-0.9352531315553878 
-0.01231382704705974 
0.6084873874952568 
-0.4768945896378196 
-0.4768945896378196 
-0.8229333381424125 
0.2784842308293453 
0.2627925048921761 
-0.3751877220450336 
0.3459108833581765 
-1.359118295942708 
0.3870292349574602 
-0.3246554650924807 
-0.5590858262580602 
0.18485923204572 
0.4740743219950059 
0.2888805405432204 
-1.315602906185801 
-0.2267313639052927 
-0.7644256259286917 
-0.5420578742076648 
-0.217422813087674 
-0.3073288679768977 
-0.0317491256354871 
-0.4113801061029803 
-0.6112023980220941 
0.0971258935020526 
0.2022520665512184 
0.1618066302550395 
-0.8612388173141707 
1.267318815380341 
-0.4113801061029803 
0.3273660324981932 
-0.429755598598962 
-0.251030762905073 
-0.6518572348118297 
-0.9880012254151147 
-0.08421204273970756 
-1.195303869501346 
-1.184333614926015 
-0.07774291400222132 
0.1687506394856722 
-0.150198138460125 
-0.06855939642056469 
-0.02286154571763445 
-0.4365382948292081 
-0.547974331424859 
-0.5272195504506466 
-0.4365382948292081 
-0.6848893035115775 
-0.9267344485883275 
0.06488535365119401 
-0.4764763301736857 
-0.3235300779062404 
-0.6667689097821854 
0.6730848848635574 
0.2712411450837646 
-0.1894691298783543 
0.2985133118935244 
-0.4365382948292081 
0.238520699116038 
-0.2233088485492916 
-0.1726190877776475 
-0.4365382948292081 
-0.4365382948292081 
-0.2780950274324281 
-0.2780950274324281 
0.8461384017371208 
-0.2660988453514574 
0.07483775239582401 
-0.1788638953217229 
-0.6955989251644208 
0.1619531676964537 
0.5607997032341959 
0.3145266342165168 
0.1528536970468152 
0.04142915935843147 
0.8293854189223799 
0.1764025783032126 
-0.5714813054368886 
-1.278615090364455 
-0.4808609914857012 
-0.9389194644127847 
-0.6196498596534317 
-1.550650767164943 
-0.009107247621485064 
-0.0342967727325789 
-1.074206051943112 
0.1635077256710056 
-0.1557375987761027 
0.05599572893774222 
-0.345019280837186 
-0.2568586947111455 
-0.009785641338402993 
0.5144550195696869 
-0.009785641338402993 
-0.3489803506157698 
-1.025910082412071 
0.4091804300928591 
0.1894475413184626 
0.06504371489452171 
0.01495897479546347 
0.1605418020835258 
-0.4141561044439442 
-0.2129666831912414 
0.832288224513792 
-0.1901796815936145 
-0.4799328408988574 
-0.4044327189063203 
-0.08063753257683232 
0.6043893555543042 
0.6107886022908183 
0.1403929608849963 
0.5921144356110427 
0.02479100944423124 
1.149593200336241 
2.242509869878366 
1.385600217259987 
0.9578597610509305 
0.2698029599396556 
0.1459311081541779 
-1.517575938392008 
1.149593200336241 
1.149593200336241 
0.001342594133415128 
-0.8817405334653778 
0.06089311313736089 
-0.4840146067792281 
-0.0987907757897056 
-0.0294770205272511 
-0.1676963951257766 
-0.4375723194646897 
-0.5337315335857145 
-0.3199386470824668 
-0.4367667957135936 
-0.4386326012960314 
-0.3252996102363454 
-0.964476226238923 
0.6677905157008752 
0.2143824270597351 
-0.9678868432567824 
0.004454890276704851 
0.274692265578083 
-0.1290494656188364 
1.27602743676304 
-0.1725597610406361 
0.6938880214361094 
-0.2970801772904254 
-0.5464482793774771 
-1.01453785646476 
-0.2413561519825013 
0.1866771541739421 
-0.236677307706723 
-0.2104295909863789 
-0.146457729577137 
-0.3951893160264847 
-0.1205152455512589 
0.007550646770558073 
-0.09826498511483865 
0.05574145448412434 
0.2634730852326847 
0.2216289289642482 
0.6571319377526675 
-0.4378372629244547 
-0.06107084579676438 
-0.1384634293083551 
-0.09097355329090157 
-0.4023121059924015 
-0.2873317963872335 
-0.4233736507014333 
-0.4787460408535755 
-0.6784997239666308 
-0.4133824992289657 
-0.5790898088092939 
-0.652638878583055 
-0.3198000298467404 
-0.2892155745649211 
-0.2892155745649211 
0.3829114054862834 
0.2222633201575947 
0.631383087435331 
-0.2892155745649211 
-0.7670003314897013 
-1.118399324946516 
-0.7183790002991509 
0.7125783109539185 
-0.2579268878502755 
0.3873638727885022 
-0.1568053651611555 
-0.8274420063886239 
0.4164704191169314 
1.914548604020793 
-0.5144210006106722 
0.3057484804156733 
-0.04615706676335408 
0.00752793323628703 
-0.2780173286552334 
0.2691614600287224 
-0.65042340279154 
-0.02016349660689684 
-0.08356384263269319 
0.4394771305893933 
-0.3268985711766021 
1.289348181754224 
0.7173694340349732 
0.4190988109274877 
-0.3871582886470567 
-0.6696893347623125 
-0.9237078114937542 
-0.08923768186450572 
-0.03372780667188324 
0.1606682462118117 
-1.489433091015026 
-0.1909182687105132 
0.3234507317818032 
-0.6927614512628869 
-0.5624593841715078 
-0.1526527341497242 
1.602794113773073 
-0.4889190102387601 
0.4509272947111659 
0.1869106579746612 
-0.02734229123383325 
-0.09794400135365772 
0.006957188273491483 
-0.1734550463746757 
0.006957188273491483 
0.639110278805872 
0.4269307926496613 
0.6479995700445194 
-0.0113965431064238 
0.1045735941634269 
-0.5582061534519427 
0.2373557215773254 
-0.6429767194194208 
-0.1818125549941232 
-0.0113965431064238 
-0.2524943400843235 
-0.8745060994157452 
-0.4430184806232941 
-0.3887770566542512 
-0.0826646126773414 
-0.01652258370110016 
-0.1242216515074069 
0.1237887119187512 
-0.0113965431064238 
-8.672218719286065e-05 
-0.06253417735397611 
0.2763109809899583 
0.245247532521602 
-0.2662393448645357 
0.6154182432727131 
0.3419875153694031 
0.02411398089443421 
-0.7451179211355989 
-0.8090017106401278 
-0.4254700830238712 
0.06453535286902132 
-0.644802165098331 
0.04593216789598845 
-0.06331211418581753 
-7.720562202076189e-05 
-0.0001374514146812047 
-1.058056553812803 
-0.1570079814803362 
-8.672218719286065e-05 
0.0407854095584637 
-0.1428685439585162 
0.2456842067573951 
0.4525056368743631 
-0.5931069421631271 
-0.1158261325693593 
-0.3154011508304944 
0.4180900450477364 
-0.03448032578084488 
-0.05752164049289995 
0.05887926260436727 
-0.3547349517842746 
0.3221944607568784 
0.4094208408585046 
-2.34718730692362 
-0.1538792598558703 
0.07042722712846652 
-0.01554161879563644 
-0.3881268845954319 
-0.01527522071198179 
-1.865813801281217 
-0.3539436906873963 
-0.03524706333139742 
0.5013704689794796 
-0.06351455144087367 
-0.3071508039176195 
0.2868398091286116 
0.2521122753622292 
-0.1807331514252161 
0.1790327659350454 
-0.6043105764106785 
-0.6119578336710343 
-0.1564928093434636 
-0.05756109052282762 
-0.01193368905025654 
1.096727445664587 
-0.3943471502849734 
-0.03561643676480675 
-0.4354377970731729 
0.496450119018918 
0.0006216341522049395 
0.0510418988992585 
-0.01236241279564792 
0.0006216341522049395 
0.6367794721124738 
-0.3353524291235793 
0.0006216341522049395 
0.2452716606957396 
0.0006216341522049395 
0.0006216341522049395 
0.5983956037601974 
1.638804547548635 
-0.2083124719068964 
-0.16118906810752 
0.03724910310171986 
-0.2369391497400865 
-1.789071105182416 
-0.16118906810752 
0.02070034855758313 
0.2917645734776891 
0.02070034855758313 
0.4908364174839798 
0.1293917726435392 
0.1637958111580563 
-0.1112414177863028 
0.1977215348032042 
-0.3745689732642025 
-0.1263296143461502 
0.4659041983135943 
-0.0008897196271375057 
-0.3596410959510572 
-0.1643722981917017 
-0.004407978925359192 
0.3419744241949255 
-0.002781125057125054 
-0.3387149288126016 
-0.9925416595259201 
0.137360114773058 
0.4477273224761622 
-0.7227969181916069 
-0.1753107309123448 
-0.8577052965977623 
0.2268617372821413 
-0.03480130842626757 
0.1176905539098793 
-0.3020470191744108 
-0.002781125057125054 
-0.3669890081374453 
0.2597339395413766 
0.7012525954705535 
-0.2462282681889562 
-0.08498209391786377 
0.05635047658118335 
-1.020288263184843 
-0.1338409258687401 
-0.06749059517137622 
0.03877077355405553 
-0.6253607092346379 
1.401802178900283 
-0.5719881411075397 
0.1040205350596909 
-0.4150998660065664 
0.4382905908996109 
0.7010937837715906 
2.721985515610678 
0.03877077355405553 
0.03877077355405553 
1.15696412670817 
-0.2862201780612514 
0.1496273876000275 
0.0273505806418278 
0.04270322384908018 
-0.2346605261944653 
-0.2861967169228006 
-0.3536987738472754 
0.0273505806418278 
0.02005490306857833 
-0.7537852956671329 
0.4502693724079799 
-0.4383236544031291 
0.7353274752878554 
0.1023507988471684 
-0.06384598487039272 
0.320157899779095 
-0.05088939189923006 
-0.1045627316504398 
-0.1045627316504398 
-0.0765975566650933 
-0.3495022607559302 
0.1741633337874891 
-0.1816308701365012 
1.285108485053059 
-0.7062426587248696 
-0.1846143581275078 
-0.09534659822041039 
0.1304526029706706 
0.1520998661137369 
0.4913702161344762 
-0.09299326929052794 
-0.4439662448383818 
-0.600901470306645 
0.1453880334668939 
-0.5581840630428446 
0.1264957558520179 
0.316617333588151 
0.01103046437875935 
0.4208734443787079 
0.2173782255562015 
1.097709069624444 
0.1113300084414221 
0.06350818506913596 
-0.1524251687642879 
0.1520998661137369 
0.09093232997385173 
-0.2339382093016271 
0.9427363869641631 
0.1520998661137369 
1.967504757235005 
-0.6021428642622251 
-0.3702692852145772 
0.04499186549333457 
-0.7911570168137267 
0.6235990570408129 
-1.658704675695735 
-0.2273077356900139 
-0.2273077356900139 
-0.2273077356900139 
-0.2185894550098021 
-0.2655275665690185 
0.3435710647517108 
0.006280071008875259 
-0.2325052856703891 
-0.2325052856703891 
-0.01173445966029019 
-0.0423961691016555 
0.4101885006866993 
-0.27579009914115 
0.1152104315785935 
-0.3486453323869964 
-0.4525260296248778 
0.4637855481848324 
-0.2325052856703891 
0.2709127298978255 
-0.2325052856703891 
-0.4252148562364951 
0.4251488793065291 
-0.2415300351421797 
-0.2325052856703891 
-0.05887885819298021 
-0.2354494535916647 
0.07655190799938279 
-1.034163377869052 
-1.520704551080758 
0.105768714243446 
-0.2728613263322796 
-0.555579541735538 
-0.7662936196198764 
-0.6988681075265289 
-0.1864498998975777 
-0.1192846547130118 
-0.1864498998975777 
0.4176779800266849 
0.2531706052537008 
-0.4529500734958765 
1.749122353639889 
-0.5392342985691356 
-0.05970478144101651 
-0.3485180704511355 
-0.1873453827476294 
0.100193969311828 
-0.2303493502710021 
-0.1126518988737371 
-0.4795193810698251 
-0.2146300092175748 
-1.28685600256899 
0.4558208871687417 
0.3091484558100374 
-0.04509632477364484 
0.7085265783509418 
0.4315950208568882 
-0.7364808255819761 
0.2734230563078697 
0.1567560901998155 
0.2458336183022349 
0.7679508749842019 
-0.5334990183227026 
0.4472385041576932 
0.1357473519648442 
0.7104572065262759 
-0.3041693361034411 
-0.2213135868410777 
0.05372417856413384 
-0.2213135868410777 
-0.2213135868410777 
-0.3634129962579754 
-0.004374750190660501 
-0.9341065612984694 
-0.004374750190660501 
0.2019326539722979 
-0.004374750190660501 
-0.006933815002219621 
-0.004374750190660501 
-0.03395406387375453 
0.3260626726905914 
0.4668709046118175 
-0.3685606676188993 
-0.01995742577429599 
0.4625568533590265 
-0.7444954810987117 
-0.1128445001349575 
0.2699165950227674 
0.02550321919199738 
-0.2261992459115361 
-1.820331218682779 
0.150768638515911 
-0.2793150794629417 
0.1514329480238464 
-0.6249466113600307 
0.05910563589349675 
0.5844911239853547 
0.1167435905389015 
0.1514329480238464 
1.622418272923631 
-0.3035322927041382 
0.7464934422537273 
-0.1316926673383182 
0.4720136960304958 
-0.1520716915411071 
-0.1316926673383182 
-0.4218062415022293 
-0.2100814836922811 
-0.9114262783475804 
-0.1348562917023666 
0.3050595748888667 
-1.309076526655688 
0.7706592734108618 
-0.3915534592498331 
-0.3915534592498331 
-0.3595071344751376 
-0.3915534592498331 
-0.3915534592498331 
0.3824734124454828 
-0.3927552125631555 
0.3736061698398657 
-0.6645831898020007 
0.3513795914795007 
-0.5270250665812486 
0.352244971011238 
0.0272742099287639 
-0.01741559507626197 
0.03740023045246474 
-1.320457356349187 
-0.6063239682458412 
-0.03157126649576066 
0.01592046975006587 
-0.1851675763861456 
-0.1851675763861456 
-0.04304817359283963 
-0.9784608939802929 
1.255697970467359 
-0.1715084362465448 
0.2755943059166241 
1.066621930554846 
-0.5479016012551602 
-1.241694909534362 
-0.7134356405604003 
-0.8966381495675319 
-0.130037034506309 
0.0713993081674171 
0.8590673958108018 
0.5009152397986534 
0.8523786795972303 
0.2179284349291821 
0.2790033694207855 
-0.01167803994984102 
-0.2467490679638963 
-0.1209475591612184 
-0.01092917645858263 
-0.2775336965700365 
-0.5253984457820113 
0.1693733134834632 
0.5048000112773005 
-0.2059544183320549 
0.6990986168341697 
0.1178805869796287 
-0.6111165781286434 
-0.5780399642758509 
-0.4397842429886832 
-0.3281892516389863 
-0.2540966909289628 
-1.164800103732618 
0.9561850548044013 
0.2112604705634288 
-0.2490721576001116 
0.3358442448700638 
-0.09876295348403824 
-0.2908785903397039 
-0.01497572864927316 
-0.2944885523563465 
0.005520027435863932 
-1.184629394280467 
-0.1533709976954357 
0.02382240719718043 
-0.5040488575271493 
0.7569055880021361 
-0.2262814225068814 
-0.2603572463016262 
-0.2788627064605482 
0.7175799870211658 
0.7294948559456594 
-0.7845146095383653 
-0.5223265725632865 
-0.4990100868354093 
-0.2785046260558367 
-0.2376280484691644 
0.4540013700601524 
-0.272610700597754 
-0.4803380527734033 
0.006885623307224251 
-0.1672038930313696 
-0.4300769043595974 
-0.4672304984727034 
1.144737131477715 
0.1651402772656728 
0.2837805397767968 
0.1651402772656728 
-0.1355399794698871 
0.4602485990201861 
1.238430309203476 
-0.8457997867760912 
0.0840220326889313 
0.1770602407864428 
0.2461127316636718 
-0.004268584241926158 
0.8261988312387156 
-0.2696410531221086 
-0.8157182512588453 
0.4385458388604137 
-0.08948988358753486 
-0.8935017087075156 
0.2097038312104021 
0.280148580247136 
-0.4139030547669007 
-0.8631180998301565 
-1.558114644697535 
-0.06130694713483831 
-0.2349171663269665 
-0.332343996569192 
1.193138340433002 
-0.6319595833851651 
0.6870699784148031 
-0.2114455453232907 
-0.275589630302936 
-0.356261243853228 
-0.4143559702645445 
-0.03870582751819369 
-0.3653715566437829 
-0.30877239498231 
-0.0896739302449152 
-0.2723034148879272 
-0.9204430538929465 
-0.03870582751819369 
-0.4215119370262685 
0.2080876870697613 
-0.002858345317148309 
-0.2188845702998469 
-0.01399908404879204 
0.08941466527046921 
-0.02178929645050826 
-1.442026841363354 
-0.01181499504892362 
-0.01181499504892362 
-0.1471036002210497 
-0.1356747922316205 
-0.4648024433001826 
-1.199744070004384 
-0.01181499504892362 
-0.2569447182705233 
-0.1378368081495991 
0.008776269172574649 
0.1426985505660601 
-0.181789222909364 
1.020743007898701 
0.0088381571757714 
0.1566677568833127 
0.008776269172574649 
-0.3888382339991155 
0.4108059118846009 
-0.6126962969384517 
0.007174929095245392 
-1.514191488673015 
0.6855812667227181 
0.06583687942534273 
-0.2076785147173344 
-0.284892063832905 
0.3941575635974022 
0.8882201024093526 
0.007174929095245392 
-0.4205561832806555 
-0.1006607093287644 
0.6848061553406785 
-0.2601806578817543 
0.07078544359920995 
0.007174929095245392 
0.2746744440410884 
0.04646724747740243 
-0.02376628396400493 
-0.06789793903971161 
-0.2864303524316864 
-0.01559166378800312 
-0.4702061639808035 
-0.0450293878170802 
-0.7997188522588856 
-0.4133373993558405 
0.8100395036540966 
-0.01774458104763666 
-0.6901921152936555 
-0.1290115964895962 
-0.3977718426165502 
0.1141437529343704 
0.02611279217648384 
1.329828925892467 
-0.4626081610143499 
0.2356129849015847 
-0.1856792842817883 
0.08082692159006397 
-0.1856792842817883 
0.6363703452199594 
-0.1349543472695967 
-0.3629482788391364 
0.4538878167536524 
-0.3757166261037919 
0.01967226251664894 
-0.2012114036733227 
-0.6009187649031722 
-0.07596556358696355 
0.3479402349236168 
-0.1865192130497083 
-0.5121447895301134 
0.2974801476675542 
-0.02477932210209803 
-0.003744586984808256 
-0.45487979524555 
-0.003744586984808256 
0.3392129026925428 
-0.003744586984808256 
-0.0216551895148417 
-0.0217807961023358 
-0.03540285626922195 
-0.008739962302704653 
0.3267225289922845 
-0.7010096259747443 
-0.323297671483899 
-1.297191953437359 
0.01020208822755509 
0.6719169509608635 
0.2236616675620094 
0.01020208822755509 
-0.08209741267285761 
-0.6942946249760363 
-0.1465743896608592 
0.349702801461479 
-0.1767108405361819 
-0.1795741834333369 
-0.02448537760647953 
-0.3481070635008745 
-0.03987704289600223 
0.01346389985590822 
-0.02448537760647953 
-0.2979693890747628 
-0.02448537760647953 
-0.6348167007551833 
0.3209992913858739 
0.0009651703035754473 
-0.4933542720922958 
0.9068332662066099 
-0.2546467417607192 
-0.5640604661131079 
0.1550640732793507 
0.05076072243038299 
-0.172615999644154 
0.08069792772158396 
0.3709741650229987 
-0.06950395051165545 
0.008824077273947881 
0.5396847813290332 
0.06261157979413921 
0.04615312525363799 
-0.2242299789903714 
0.6958313886345878 
0.5894999708840596 
0.7387893423509665 
0.7845128744614642 
0.1241120340870042 
0.497965588401229 
-0.1211669110546447 
-0.6604069813447371 
0.3499577484594127 
-0.425761207002577 
0.04691317665836163 
0.2619579760630553 
-0.3186693449691712 
0.06261157979413921 
-0.5277729732565692 
-0.163356626121245 
-0.2360361732297047 
-0.1252749159514537 
-0.06949999335587879 
-0.5967366480055245 
0.7667106409301613 
0.003156591926555 
0.1018369607834653 
-0.07381358927381299 
-0.629923049690251 
-0.3798195918069509 
-0.1722467296252533 
0.02162912477420575 
0.6742131381603897 
-0.152837155109462 
-0.06385391726964718 
-0.4989777598656568 
0.02465670511084252 
0.3405507850987965 
-0.7203222819748099 
0.009149672119694526 
0.3405507850987965 
1.306233825320113 
0.2176918503309718 
0.7940184776898612 
-0.4633575925311619 
-0.3493469539707189 
0.2481762141546654 
0.8376076089187797 
0.3405507850987965 
1.292593906791571 
0.1246622810811559 
0.3405507850987965 
0.1240415031048115 
-0.1252575965210864 
-0.09399924920014884 
-0.4705534872132316 
0.4352237707002667 
-0.02489739178160377 
-0.5411434858847844 
0.633312868194906 
-0.4582334398305487 
-0.9421136699921697 
-0.2806338842418647 
-0.2894631926623616 
-0.5098690555674656 
0.2350869396394214 
-0.01256705126753678 
0.4262543035187336 
1.607537257090319 
0.6876216532924063 
-0.2128612473628592 
0.4027058960582018 
0.3780799526481552 
-0.09061363114940441 
0.39579818828323 
0.4946696481769243 
0.5108221799262705 
0.4443662179977192 
0.04009615520544994 
0.3291306787507 
0.4443662179977192 
0.3015174654061907 
0.4395202233365701 
0.4172881274106175 
0.4134161568734589 
0.2133471903320048 
0.3780799526481552 
-0.5844875754366259 
-0.5790444057220656 
0.02356202296082741 
0.7233137361864755 
0.4532271132142489 
-0.04204859605292645 
-0.3944222786795443 
-0.4335610635703767 
-1.002544969902599 
-0.0009242363037985516 
-0.7805276617520541 
-0.5720988912110783 
0.1552203902610625 
-0.1888730149256533 
-0.2581719783736234 
0.4155164918150995 
-0.0009242363037985516 
-2.184524742193111 
-0.1694443423114539 
-0.2628460637730654 
-1.404692383220866 
0.5064779925347007 
0.1072329649993697 
-0.4123149059379127 
-0.4123149059379127 
-0.01399376326428701 
-0.175922887467985 
0.05890495528790704 
-0.4123149059379127 
0.04975721430437664 
0.5259695333709681 
1.06358690182136 
-0.2831807159953763 
0.07921907721993615 
0.1672909619157498 
-0.0470256404138573 
0.07921907721993615 
0.7744561658837584 
-0.6880479794331356 
0.9048908359641712 
0.2625609546191963 
1.484121719856374 
-0.0006420713377626108 
-0.6895908909823033 
1.308571358044359 
-0.0006420713377626108 
-0.0006420713377626108 
0.222177593421352 
0.6789448711743246 
-0.01691131030807478 
-0.01691131030807478 
-0.4870751470868322 
-0.01691131030807478 
-0.02233683736980265 
-0.7439653620460317 
1.072656702748813 
0.4542463068573252 
-0.03939334856719139 
-0.0765395636926739 
0.2482184863966238 
0.6307329082632687 
0.5570874313732038 
0.7627769796751351 
1.062510268597326 
0.2394890017461936 
0.1446877121987829 
-0.02151934528328178 
-0.08592775222433326 
-0.6194334604540627 
-0.5347373520038415 
0.6547778535790857 
-1.107869327974995 
-0.5302687650713074 
-0.1131680158529742 
-0.0683144503096329 
-0.1670808017120517 
0.8449414638660941 
-0.109959186520796 
-0.07043611481256465 
-0.7322459331911979 
-0.1080972924967277 
-0.141160058275963 
0.6721948972269283 
-0.9428517364940681 
0.2025788990807856 
0.06035707810937561 
0.06035707810937561 
2.598121029638836 
0.2342850766743168 
-0.003244517637643468 
-0.4241827272845032 
-0.3386820819091865 
0.3495075169180763 
0.261299193841763 
0.06159062915279386 
0.803681231513212 
0.04556924859199138 
0.5716004612081739 
0.386562652052636 
0.9279835739535247 
-0.3942088318577815 
0.1821575043427827 
0.06035707810937561 
0.06035707810937561 
-0.3281495953264376 
-0.07010865808995695 
0.09911976515664127 
-0.1371064989271597 
-0.0910348830418103 
0.4546834793755362 
0.1208934833082586 
0.2675739276481069 
-0.08152461166888059 
0.1576924244780381 
-0.3302747354803154 
-0.07470817928708418 
-0.1408612398229426 
0.535174771705114 
-1.453162407137933 
0.8401473920376481 
-0.07470817928708418 
-0.09385074861370757 
0.05601011570796266 
-0.2938963295826291 
-0.5069968861862887 
-0.07470817928708418 
-0.07470817928708418 
-0.3290209387603246 
-0.1191766168521655 
0.09372197696394441 
0.5977637928134689 
-0.0931243832217671 
0.2665628895905554 
-0.1430530721957197 
-0.7937422165359171 
-0.2751285596197235 
-0.1231181109142555 
0.2281326563723309 
-0.5631274996779797 
0.3958226169793106 
0.1103619924289662 
-0.557975195875985 
-0.1043977630382079 
-0.2973808009065575 
0.5839329278103964 
-0.1043977630382079 
-0.4701867271137979 
-0.6707731859331036 
0.1169633305807926 
0.004485414338274308 
-0.1043977630382079 
-0.08369965176984308 
0.2716033659894117 
0.2255682467851464 
-0.2733863394908216 
-0.361207944586328 
0.3190007634328291 
-0.2006181505044738 
-0.7059911851017764 
0.3531252375243817 
-0.1430346198765104 
-0.101099255302109 
-0.09577016717182169 
-0.3677788766339578 
-0.08256718646146299 
0.2080186583785809 
0.1894129068399645 
0.1375138361053163 
-0.06506455263408172 
-0.5946477033627485 
-0.3179819555533952 
-0.01643198543068545 
0.1167101429439373 
-0.1302028235398999 
4.399281365006475 
0.4872808826742471 
-0.1281718713652591 
0.01404134596785394 
0.1915005363938458 
0.1090508891477158 
0.2062627713023817 
-0.0427505092945453 
0.05645547601123665 
0.2702602524246266 
0.07645491230137171 
0.5807462960684817 
-0.3442421062135699 
0.1048456098692529 
-0.01928888359755517 
0.1275775119660613 
-0.1007546918092683 
-0.1278359688679403 
0.1000121168946754 
-0.1317149316443584 
0.5345312373698955 
-0.2100652368148437 
0.1107828275052971 
-0.18412087528541 
-0.8861070747598816 
-1.236521805257005 
0.04394541310119295 
-0.1291864374117099 
-0.2513900354865216 
-0.2024756531210399 
0.09732967065187341 
0.03295771268563338 
0.3460913641019699 
0.1572211376624813 
1.370177207628104 
0.2790679830371862 
-0.2531248881978917 
0.8581509976681384 
-0.3199235976869027 
-0.3849969306804756 
0.08817474118984851 
0.7769134667694502 
-0.2058281998604115 
-0.2058281998604115 
-0.1031496853586093 
0.02448610289224007 
0.02448610289224007 
-0.2660463014167062 
-0.2085641277993158 
0.1568356925038391 
-0.2969968018346518 
0.368287614866691 
0.4539431285288771 
-0.3253699661871167 
0.02387468950732311 
0.3209589440780001 
-0.2616514691015645 
-0.4673302601607205 
-0.4248437990605305 
0.8447622935564782 
0.4195024311322353 
-0.1432326019860477 
0.3150371045111593 
0.1626888138129716 
-0.1922644852037716 
1.408492222688653 
-0.1466143160578066 
0.1859763732457159 
-0.773472255634331 
1.265047716082567 
0.2516781820128333 
0.2516781820128333 
-0.3198665904038382 
0.1669337973532565 
-0.4502261707069264 
-0.320557209132535 
-0.7068549291257468 
-0.3948976156112459 
-0.4150117509030783 
-0.06313109613594788 
0.01980766919244104 
-0.03983128692774959 
0.3589218886109212 
0.8721789282495593 
-0.3714328794596056 
0.1946447837706988 
-0.03983128692774959 
0.4277046185942115 
-0.1637482695283648 
-0.0001342291891039529 
-0.0001342291891039529 
-1.317003243708777 
-0.01078570791993087 
-0.5822838707441532 
-0.4293180180346619 
-0.2463043196691656 
0.06270473297785158 
0.2622125264425118 
-0.3767166217500925 
-0.3003911300277987 
-0.09450560112450729 
0.510364357817869 
0.01395534668977344 
1.085417181594283 
0.3805816132080405 
0.2528669316291183 
0.1228000920036288 
-0.1009886221274476 
-0.1017315203534345 
0.1882274380634622 
0.2614613512468232 
-0.1724344992053969 
-0.0709435512795428 
-0.1896986947817169 
0.1846895482655458 
0.1320015496605675 
0.2092175062490809 
0.4810343920548817 
0.1320015496605675 
-0.0742305170402406 
-0.4877659870022103 
0.3061482176771129 
0.1402335157687506 
0.1320015496605675 
-0.2246926797245302 
-0.261617926653634 
-0.2246926797245302 
-0.2464477568675695 
-0.7839869124790144 
-0.2604924073849795 
-0.2897589821473929 
-0.4931388625142612 
-0.1233326848061667 
-0.3176337660070931 
-0.1233326848061667 
0.01472538468489286 
0.2875684088359829 
0.6705072322958943 
-0.3836492958841056 
0.1238073340407618 
-0.2724559236185908 
0.4203165153637416 
0.5454727170779029 
-0.06235905119948146 
0.3019603473127611 
-0.3018731167021768 
-0.02608130244857842 
-0.3009999524217712 
0.2713668838870029 
0.5791826694718047 
-0.4087914240373305 
-0.02259057982419433 
0.200735819800696 
0.5526660189655305 
-0.2344043988233048 
-0.01335012038750039 
-0.3167562832741096 
-0.04031034084892676 
-0.4473019701347676 
-0.5338102444391931 
-0.6993653977586882 
-0.0002036235686240546 
-0.4961764458942746 
-0.1263071686245269 
-0.0002036235686240546 
-0.4389714179076585 
-0.0002036235686240546 
-0.0002036235686240546 
-0.09900879708722705 
-0.09900879708722705 
-0.0009938964029045636 
0.0005553573160646775 
-0.1747999468793186 
-0.1145909538716577 
-0.2444514714909936 
-0.1688754543339549 
-2.507611175022146 
-0.1739136362143777 
0.03602881622517169 
-0.2334373557557708 
0.06475444052741873 
0.641312949435203 
0.8104401741615501 
-0.6613865369202466 
-0.399946048937669 
-0.313332157022741 
0.03306107455090066 
-0.3698419962720845 
0.2451039537469454 
0.2306462326074168 
0.9430523394486133 
-0.1762790776898426 
0.2852419526891738 
0.526484647686005 
-0.233504092211417 
0.2391252359172072 
0.4967731335505925 
0.1390316380429048 
0.2852419526891738 
0.2921632335656318 
0.03871391221115872 
0.46886380427008 
0.6280893339850615 
-0.1517406068170976 
-0.483152592733059 
0.2852419526891738 
-0.1094054230303692 
0.01072926916719658 
0.3539748995081518 
0.2836396666422976 
0.2185593092128157 
0.2852419526891738 
-3.416340450429398 
0.2093731628281272 
0.1539763328015965 
0.2852419526891738 
0.2852419526891738 
0.4687201430515313 
0.5179949524169832 
-0.08012007962908743 
-0.3634515163801054 
1.043528020760374 
-0.2937259917828227 
-0.08012007962908743 
-0.3628963443155842 
-0.1460404814220365 
-0.1892103158315233 
0.7240042965485448 
0.0909618040722929 
1.019373272700448 
-0.06842593621323792 
0.272558280073151 
-0.04070104199957625 
0.6665284779060099 
-0.7159988652648991 
0.2407553937933049 
0.03775706429133961 
0.138281226547657 
0.2797531622646322 
-0.2117847320562599 
0.4828438851916948 
0.3622288713159798 
-0.09087488207149022 
0.467840814691917 
0.09420241484401268 
-0.4732042180777591 
-0.2296068313563702 
-0.08945224493212871 
0.4229710802473231 
0.06549617923220304 
0.1291212293559913 
-0.1814867471030575 
-0.6070844031625093 
-0.08945224493212871 
-0.2407696876610587 
-0.03717499293859976 
0.5995106196330964 
-0.6035501299355268 
1.001492239367433 
0.215748253687793 
0.8967815995241761 
0.1453470763308202 
-0.1987051402713519 
0.698798579278554 
0.00739645147409033 
-0.2260019878378343 
-0.1784372265113422 
-0.3073320584521224 
-0.4781923419959327 
0.4415378920387998 
-0.2543426948658642 
0.08612559864361047 
-0.631771559650243 
-0.5092712813481536 
-1.231928922494111 
0.06978754993413354 
0.09871907707631028 
0.3202171101171399 
0.3744349088951484 
-0.681393604997809 
-0.1451765454643956 
-0.1774356326203718 
-0.3803688996127284 
-0.2043993768649317 
0.1716917070627096 
-0.4914746166377083 
-0.1603398463325537 
-0.5423563845150846 
-0.5888164356748909 
0.02901095704671949 
-0.8008790665190473 
-0.4275441178114685 
-0.201209187757004 
-0.07213745908832839 
-0.26458526349369 
-0.2481371294775377 
-0.2673038414594288 
0.08272161425079923 
-0.7540740751517484 
0.2163868807520188 
-0.07494231166130563 
-0.03911629635323767 
-0.08028365960843109 
0.29754923946211 
-0.08135176680306173 
-2.074690925327675 
-0.2345597523584858 
0.5711690607214909 
0.3169714808696222 
-0.3613859603593613 
-0.9937816092374225 
-0.5440182222826675 
-1.728186939480139 
-0.153285364228313 
0.122318279675359 
-0.03494922546478638 
-0.06582584005847299 
-0.8693146586560958 
-0.06582584005847299 
-0.06582584005847299 
-0.21794146491056 
0.3008409229125095 
0.8924509014063573 
-0.3402168110423778 
-1.061705082088115 
-0.1326778735034227 
-0.5172951312876322 
-0.6429778278612054 
-0.12203959896089 
-0.4421831444258576 
0.06659927356740074 
0.4216938498674325 
-0.21794146491056 
-0.3687050146039765 
-0.21794146491056 
-0.1096959595102528 
-0.0914721517961304 
0.2436802206526923 
-0.244691543976688 
-0.3216718666789633 
0.1315009149338115 
-0.4879524261056948 
-0.3017141239906469 
0.01001730030963539 
-1.372168413098657 
0.0605971957660598 
0.4112264336141588 
0.1717416274764477 
0.2972075213632741 
1.007797662753828 
-0.277118248239197 
0.1191838203071734 
-0.7169303437315633 
-0.4026572966591628 
-0.4505997619489038 
-0.1650494564377165 
0.3040750306040381 
0.2401856780285037 
-0.2414340852557186 
-0.1155230245756637 
-0.2749972984720402 
-0.2150982631689347 
0.4590454256389972 
0.5127924347965562 
-0.09480440984403986 
0.5971057115647312 
0.3682999473107447 
0.3917051855922655 
0.03295550020445361 
-0.8675220357769353 
0.1306422754743853 
-0.8000518504301477 
-0.4904387855255408 
-0.4006382452609052 
-1.332064558810811 
-1.210799233790087 
-1.332064558810811 
-1.332064558810811 
-0.7789967488532256 
-0.130867835597502 
-0.0111048091503528 
0.1049938857678379 
-0.4884410683788424 
-0.2963732636461595 
-0.02543519995987414 
-0.2532247910234822 
0.24029515596419 
-0.1301284463294216 
-0.0111048091503528 
0.424505948234071 
-0.0111048091503528 
-0.01612208891247516 
-0.07737008007422982 
0.2199884885350933 
-0.2269092081874308 
-0.0111048091503528 
0.1688204401720116 
-0.3584909160701343 
-0.2953682893743327 
0.6998609522623549 
-0.4790383387308671 
0.2016192266492708 
-0.383811835783047 
0.306416437449068 
-0.04929644879360764 
-0.1377477870887698 
-0.1377477870887698 
0.1569732040059924 
0.4514587712936167 
-0.05647475283205892 
-0.07079954727635872 
0.1765900089512961 
-0.1851305148355276 
0.04425705453278783 
0.5079124334669195 
0.1576122894246303 
0.1576122894246303 
-0.3338553538782199 
0.4608686533857283 
0.955185753557233 
-0.06074955944034199 
-0.4573762420654338 
-0.9422618430116783 
-0.2232149272702957 
-0.005115365755008672 
-0.05345692304622047 
-0.7255297066895522 
0.3772977849699115 
-0.3198114565987712 
-0.3305375405956167 
0.04338799143727285 
0.1517708154196597 
-0.4906420543345071 
0.1682253214488904 
-0.003180308927851543 
-0.1420896687747256 
-0.2449457919999976 
-0.2090864666990456 
0.312778653560421 
-1.145592010403017 
0.3069637308562009 
0.4222529797124246 
-0.3194277621253112 
-0.6891424369379756 
-0.6310271807729417 
0.497442944858297 
-0.001341090391489664 
-0.001637807647661483 
0.04993540938766627 
0.2516906433419032 
-0.1798796081263194 
-0.5439100193329583 
0.8642925234850708 
0.3954503691885068 
-0.00036042690557552 
0.1337087745668243 
-0.001341090391489664 
-0.1747995567151821 
-0.1228995992622272 
0.1410866802196523 
-0.3002455875950152 
-0.1228995992622272 
-0.3417158717106016 
-0.2800632913265345 
0.2401220452316838 
-0.1228995992622272 
0.8658268532049548 
-0.4004119923736429 
-0.4010090523277744 
0.130503941328845 
0.05607911858842213 
-0.09763486757687777 
0.2669901791510969 
0.1898648561708787 
-0.5309435919029226 
0.5684750919828904 
0.4462398645168839 
-0.5369368297912267 
-0.7851901881420601 
-0.3836023838801883 
0.1822402473344928 
-0.3828494474724509 
-0.06328560106470411 
-0.5260033031598843 
0.07705374624636235 
-0.7846103361651827 
0.4621309516918296 
-0.4092873948807929 
0.1384315635960304 
0.636224885781931 
-0.4865508530606115 
-1.27729332308758 
0.2824960608365232 
0.1896265981972879 
0.1199833640762444 
0.7563936793013912 
0.3267005553844364 
0.1523004092468276 
0.3146991552528712 
-0.1368181348329666 
-0.1368181348329666 
-0.2095036972702995 
-0.05746701315704768 
-0.6424162054159154 
-0.2325915825015179 
-0.01896074977401156 
0.2794084512247618 
-0.1097534033404733 
0.2029981619896025 
-0.01356340805041495 
0.02513428404476744 
-0.1666882788049867 
0.4784696956664863 
0.3363601561304314 
0.3363601561304314 
-0.5584036798983473 
-0.007153418055364093 
-0.04343633448259073 
0.002632482876262366 
-0.03067001399456032 
-0.2887947412311204 
0.1462235397959944 
0.06518815188416607 
0.6688435077983247 
-2.680349532147856e-05 
0.5073347882239907 
0.03169329396684451 
0.6194269660374655 
0.1139878260595556 
0.7414521724937962 
0.003057793782848835 
-2.680349532147856e-05 
0.2327945607662685 
0.3155687022251878 
0.4053820400817238 
0.07784041900030224 
0.4042317499335357 
0.02457309463371044 
0.4053820400817238 
0.7656588311565001 
0.4053820400817238 
-0.3021862811733446 
-0.181555298161695 
-0.05856690604764376 
0.342372481205496 
0.4016909776757417 
0.6822191046356505 
-0.3768399781393064 
-0.1850132825727525 
0.2358800722885472 
0.5042930036794113 
0.6667609978198856 
-0.003436257726960839 
0.6442088180554041 
0.7150887230769524 
-0.4224773752886738 
-0.003436257726960839 
0.3793042439482379 
-0.8683853949880733 
-0.3353557961250079 
-0.1470388209689734 
0.096981457341184 
-0.04371105773113455 
-0.253532658362687 
-0.253532658362687 
-0.3042613128274138 
0.1040995669995236 
-0.253532658362687 
-0.253532658362687 
0.1918965911446787 
0.1930280779986314 
0.0019741669897873 
0.2785317667871141 
0.298189312140396 
0.07822750395736403 
0.5809288730727759 
0.1929865726953257 
0.4278875451382502 
-1.211621692799908 
0.1677571284524417 
0.4628915174932086 
0.05378553979245747 
0.00532911499960781 
-0.03361439613175918 
0.008066217090410728 
-0.2545623614665016 
-0.2456552224082854 
-0.2884559766489516 
-0.2433991891924654 
-0.1773595716050592 
-0.2605724227824989 
-0.2507628638219184 
0.5177275360028124 
0.2560297922487987 
0.3731757809948856 
-0.1501224759773358 
-1.119164775023618 
-0.1086838074448519 
-0.01999082755855492 
0.6288172430517386 
0.3280252613946032 
0.8356400544179829 
0.3720662919900147 
0.2393642331771421 
0.545509069400482 
-0.3647292360869711 
0.3958354123683652 
0.09559606017626114 
0.004541340976150918 
0.1945796911099222 
0.3280252613946032 
0.09955786306030988 
0.4536243000719207 
0.2375866362928737 
0.2301479789652209 
0.5349094285509688 
0.2891434052908966 
0.8882248216613419 
-0.1111604402450908 
-0.1111604402450908 
-0.2630995954029665 
0.2772315662153924 
0.157302250019416 
-0.08345848780657046 
-0.08345848780657046 
-0.05007056503544043 
0.5133976032625671 
-0.9796833245119784 
-0.05007056503544043 
0.8154197428690898 
0.3541959254780798 
-0.4274680260834644 
0.1395213201667153 
-0.06243076931397178 
-0.2360515550709262 
-0.7829450497188511 
-0.03546500371316065 
-0.9770386828515082 
0.02735130700663324 
-0.5456067167037243 
-0.9751522180946632 
-0.03546500371316065 
-0.0588645796724946 
-0.0588645796724946 
-0.0588645796724946 
-0.1924821490783293 
-0.0588645796724946 
-0.6095715388872713 
-0.4451508804707022 
-0.0588645796724946 
-0.3124738962062197 
-0.9221120414931885 
1.240638161357917 
-0.0002223480505202393 
-0.0002223480505202393 
-0.0002223480505202393 
0.09539773564066555 
-0.3876901423714336 
-0.1527375487715064 
-0.3704528234554522 
-0.0002223480505202393 
-1.050870679849195 
-0.6421416206555602 
-0.9909881225485915 
0.7100228374987684 
-0.0002223480505202393 
-0.0002223480505202393 
-0.03344892510597649 
-1.46714013183576 
-0.006792071381405337 
-0.7869393366335324 
0.2093532560884018 
-0.9388361329858635 
-1.142205954603242 
-0.6712003816939049 
0.4223801585848445 
0.9589216275016561 
-1.043005709468729 
0.4223801585848445 
0.4223801585848445 
0.09138524158852052 
-0.8790723386359933 
-1.086940220515081 
-0.6308422210988615 
-0.6460684430464197 
-0.5258573075596114 
-0.1546716084495925 
-0.1546716084495925 
-0.1609277756268495 
-0.2383943720128298 
-0.1609277756268495 
0.1073821942738215 
0.1479519687725584 
-0.3997267192722076 
-0.1609277756268495 
0.1100242798790447 
0.1151504732337795 
0.1151504732337795 
-0.001812018762806005 
0.2451346547009246 
-0.001812018762806005 
0.1989697334607961 
-0.7308134422062927 
-0.2233489478297623 
-0.001812018762806005 
0.04333793207972099 
-0.7847290244485481 
-0.1369390591224741 
-0.3832272873154177 
-0.2292217896951869 
-0.1051560594028712 
-0.01528948663643418 
-0.01528948663643418 
0.02268988694006149 
-0.5732379009555126 
-0.167799299495191 
-0.505160167271443 
-0.01528948663643418 
-0.4076510156033201 
-0.2175859820504326 
-0.01528948663643418 
0.06007193447379483 
-0.01528948663643418 
0.02261700060688299 
0.0019615291376161 
0.0019615291376161 
0.0005643842109500127 
0.05194334755451952 
-0.1129074272793301 
0.4521313872966106 
-0.01685719919405482 
-0.04048369331253472 
-0.3412523527995763 
0.2542902848557022 
-0.5306082191409316 
-0.07800794250480862 
-0.08915172571664277 
-0.1629498592687598 
0.008509313601726399 
0.6211177765245676 
-0.1034928274719631 
0.2858988334030456 
0.484556210158246 
-0.8178411010415941 
-0.1906332486821433 
-0.05789234946398933 
0.4304598683358958 
0.3740297758469251 
-0.3100607078769901 
0.2892313532696787 
0.4826064804335471 
-0.2896511536921123 
0.2892313532696787 
0.2892313532696787 
0.1667362610621723 
0.3063768665014303 
0.2378428675463208 
0.4098607678989897 
0.2536534876050245 
0.5605007779777876 
0.5733080117576131 
-0.01302075663057505 
-0.01302075663057505 
-0.01302075663057505 
-0.4471057215214502 
-0.4937314261312892 
-0.5449668914152598 
0.1972902837040048 
0.1972902837040048 
-0.001905829869463555 
-0.001905829869463555 
-0.001905829869463555 
0.03610255000133689 
0.2469193647762144 
0.2015498005983517 
-0.6322298896035489 
-0.2357756619096922 
-0.3969780686049294 
-0.6653919516720754 
-0.3987423300693083 
-0.5531122795575102 
0.3506190590955976 
0.1861566252141143 
0.7929120313347366 
-0.247476694591674 
0.5787092323444588 
0.2915292352094648 
-0.0009159848911647036 
-0.2629728142702666 
-0.05489800042292273 
0.1459500923188337 
-0.02169639232774159 
-0.2059228034964066 
-0.471036938643757 
-0.01607008041480702 
0.1091096876026425 
-1.32789537082427 
-0.2276140392764761 
-0.02563775001706368 
-0.364439610705042 
-0.6581564514214984 
-0.0009159848911647036 
-0.5703554827122036 
-0.1269379545751669 
-0.1411703003623221 
-0.2058166296391238 
-0.2827338743305883 
-1.505914553828975 
0.5796359415838717 
-0.05329429545176717 
-0.1855041168795278 
0.4463311670649424 
-0.003125116955449382 
0.7839923698669018 
-0.2239172242288098 
0.001557555048678064 
0.4633100543688631 
-0.3991115238861402 
-1.842167459910872 
-0.130770324522432 
-0.0003149502963825115 
0.03418406031120757 
0.5269580943884012 
-0.09758079723138352 
0.9206536174783507 
-0.4191229360836909 
0.7852497696784232 
0.2411966728057159 
0.9079076232539862 
0.3525988536989349 
0.4403708850980819 
0.3518172888645195 
-0.398107826835203 
-0.7250157987140193 
0.3525988536989349 
0.3525988536989349 
-1.163780469464609 
0.2510788288745587 
-0.1193709139956326 
-0.265679708558072 
-0.4778193885224436 
9.893582087939102e-05 
-0.03988805847670297 
-0.04926154738508844 
-0.2759231051293399 
0.1580229044651039 
-0.03976295192677633 
0.4063829247861148 
-0.4280506325013404 
-0.03976295192677633 
0.09511462623883082 
0.106500495537937 
0.5838678420887032 
0.0228771846233366 
0.2348511149698346 
0.1276731634647046 
0.4316568035757932 
-0.008235119142609527 
0.60010743631083 
0.05519103328712628 
0.8282072203203907 
-0.1192201241487827 
-0.2223289508641851 
0.0144338964568105 
0.0144338964568105 
0.5981034054927973 
-0.01844251214669023 
0.6133139891155805 
-0.4088178067277434 
0.1476432180224053 
-0.3022312554871211 
0.4400617541620662 
-0.1493547047531891 
-0.1103312633378872 
0.7909222305050289 
0.4277606305166687 
-0.1493547047531891 
-0.08498148039311389 
-0.1493547047531891 
-0.1493547047531891 
0.04843018566913675 
-0.2386402305017859 
-0.07824883641356796 
-0.4083875114538879 
-0.007283509273662845 
-0.4411282474354621 
-0.3158202810049821 
-0.007334623312964986 
-0.007283509273662845 
0.3037632392313033 
0.005686278209192832 
0.005686278209192832 
0.01137255641838566 
0.005686278209192832 
0.005686278209192832 
0.2583051135785061 
0.005686278209192832 
0.000716313085317929 
0.1480214492550677 
0.005686278209192832 
0.9958231140297562 
0.3850575309105561 
0.5830103951555177 
1.06369954016759 
-0.2163699498874692 
0.2184101635771967 
0.816886519832618 
0.8290553025366202 
0.4434053961860164 
0.7707027343781165 
0.8115122454928767 
-0.5106463521511674 
-0.1720352118374573 
0.6237527050993539 
1.171699914172429 
0.4275617012898532 
0.3135869593573468 
-0.0008230924768902256 
-0.06501512783722718 
-0.1782688097249773 
0.6204109230157626 
-0.2893955977848269 
0.06409432744920318 
-2.610280917969484 
0.01146446208133273 
0.006227494989177127 
0.5872878511802814 
0.2048935620560316 
-0.4292234842922559 
-0.2770979282798858 
-0.3888819106438944 
-0.2770979282798858 
0.3332376278450941 
-1.368625605255474 
0.3663798996504142 
-0.03898503073906062 
0.3880167686997705 
0.7121579229135907 
0.3880167686997705 
0.3278453203538695 
0.6758888302312465 
0.3223508752167996 
-0.722473878844922 
0.1550501471399828 
0.1474957472293111 
0.3880167686997705 
-0.1978503554802074 
0.3048047864754914 
0.3880167686997705 
0.3880167686997705 
0.3883203830781263 
0.3880167686997705 
0.4359448901705821 
0.1958286440800613 
-0.05766304896480771 
0.2792930711445664 
0.7471622840574564 
1.080016344103056 
0.09525203878493541 
-0.09824871006697657 
0.9658317956539834 
0.2969511816237327 
0.189485261699598 
-0.07713529990914102 
-0.0589391135771069 
-0.168897714429036 
0.4368197786023943 
-0.407978987270861 
-0.3877887725490315 
0.5520872899381679 
-0.5698409158712662 
-0.01964243428270828 
-0.329314892066905 
-0.4993991735024499 
0.7592752486270105 
-0.3045544265159943 
-0.2585124807636719 
0.8878251486422102 
-0.1718143059403659 
-0.281354587858374 
0.02739229190905132 
0.1048089585688843 
-0.1071926562674146 
-0.2488209176980292 
-0.09798835707565061 
-0.696793114313482 
0.03740987432418624 
-0.2083354885849144 
-0.4245348550270577 
0.5358363590897076 
0.8159111433997585 
-0.33906665389886 
-0.06037608091192606 
-0.04269775643504874 
0.003789693537313675 
-0.2472299927893608 
-0.2472299927893608 
-0.2882013993093601 
-0.4862811345824385 
0.004269441473657631 
0.1305629486352325 
0.3016288646322806 
-0.5251207024035714 
0.07575675526282159 
0.1380728562213006 
-0.3571365745810037 
0.1966289333579118 
0.2363410289114184 
0.3062096776002152 
0.1818792178312541 
-0.5317620970976911 
-0.1077082632153499 
-0.1638699826968729 
-0.563424688080702 
0.03103082833509791 
0.4759884195170614 
0.009688127027955195 
0.009688127027955195 
-0.3254739030366966 
-0.04999463519427225 
0.1693519218532069 
-0.38514945221271 
0.009688127027955195 
0.9617054959858976 
0.2971792478427798 
-0.0576994400331678 
-0.02412672663852761 
-1.964109189384118 
0.1568871435274149 
-0.005603906809201696 
0.02967849467505895 
0.7351776163339738 
0.01195076807880252 
0.01195076807880252 
-0.1724126696154561 
-0.1640352299344571 
0.05590210865938915 
0.000150705098362348 
0.000150705098362348 
0.6893365040298711 
0.000150705098362348 
0.000150705098362348 
0.000150705098362348 
0.02530739622794774 
0.1211540402748656 
-0.573846537468312 
0.3179006332862445 
-0.4796506807262458 
0.000150705098362348 
-0.08524198846132794 
-0.08524198846132794 
0.1373035864950799 
-0.0007088532166592195 
-0.2347019116754275 
-0.1337831667136213 
-0.08524198846132794 
-0.08524198846132794 
-0.2599042487063308 
-0.0936682349943532 
-0.214133460201569 
-0.6856438072693939 
-0.1351053551981103 
0.2251637608055407 
-0.08524198846132794 
-0.3322525882004644 
-0.1508975235456102 
-0.3361453400733069 
-0.1696823170951565 
-0.1696823170951565 
-0.5718808923227596 
-0.4296347771541716 
-0.2016433049885589 
-0.1508975235456102 
-0.4678651528310847 
-0.1508975235456102 
0.01280814034153768 
-0.1508975235456102 
-0.01415820522323894 
-0.5384884609043862 
-0.006609604192270947 
0.08308354562375368 
-0.3828736437701667 
-0.3149392419456257 
0.1758898091076438 
-0.3378167102053042 
-0.1353114418697723 
0.5342016522853426 
-0.1684970075986826 
-0.1684970075986826 
-0.2260071677429326 
0.1218524719425319 
-0.8086810168117377 
0.3273099156076761 
-0.3374799458921239 
0.2977064001494074 
0.3273099156076761 
0.3042257255344213 
0.3273099156076761 
-0.2602931327848883 
-0.1916924848788846 
-0.7061461553364853 
-0.1916924848788846 
0.5855763846811211 
-0.3579960853504829 
-0.4626728199866892 
-0.5144731938043191 
-0.1683725693783955 
0.7763243316220154 
0.06939807464135586 
0.1681138652917897 
0.7810635678192289 
0.9752967089913138 
0.6606040469769464 
0.2551188462286103 
0.2551188462286103 
0.06179255269855298 
-0.07791853454951977 
-0.8218171865306647 
-0.08328087894260709 
0.06079219882155366 
0.1387469111506581 
0.0118417042738948 
-1.211086299869779 
-0.1252545268789211 
-0.6345486465571391 
-0.6550600671916049 
0.3641479413124109 
-0.009692609165193735 
-0.01050705433188734 
-0.02595624400084038 
-0.3889915981691873 
0.05563672716677827 
-0.2596057868306013 
-0.09007758802789786 
-0.2785512323238161 
-0.1340582691451062 
-0.09288733061451063 
-0.1189969016292504 
0.004468431014914715 
-0.5499540287179665 
0.08530362669068497 
0.1709767967085029 
0.004468431014914715 
0.2041158339109483 
-0.2540043668839643 
0.004468431014914715 
0.1015176026089882 
0.1105511734120963 
0.0005381249273475274 
0.712917494472584 
0.1105511734120963 
-0.01584216898263324 
-0.1028942066865405 
-0.121865753227845 
-0.1220939841324249 
-0.01710707800597619 
-0.1028942066865405 
0.5931692096459912 
0.06573866089764636 
0.2587756315502293 
0.2001076349054827 
0.2587756315502293 
0.3393658219463661 
0.02814394950908582 
1.144418056267291 
0.3390142469505908 
0.1823294206508821 
0.03645763722198864 
0.3708592566024306 
-0.4384582468559273 
0.1175941113999995 
0.2033268888024936 
-0.2455753112980581 
-0.3403111477237238 
0.02498404897828669 
0.2143995311541562 
0.1642311599533144 
0.005723601483696833 
0.09209371288866447 
0.09209371288866447 
0.09209371288866447 
0.4945162110176617 
0.1677434963638923 
0.09209371288866447 
0.01226965932848082 
0.09209371288866447 
0.2492235814856899 
-0.08939594819279527 
-0.01827963946434285 
0.07356372189023942 
-0.1436674353921549 
-0.2637924190867191 
-0.04405117272274505 
0.175634829667212 
-0.4783112530021687 
0.7912743278700168 
0.1878054444991307 
0.2162501998714761 
0.6957708779988142 
0.0001920541980955404 
0.0001920541980955404 
0.3452202389810903 
0.8067266527874557 
-0.220708315042429 
0.435787964230759 
0.1313753923448088 
0.0001920541980955404 
0.4937951528460759 
-0.1124794012806721 
0.0001920541980955404 
0.9804079301422312 
-0.08181749513107306 
0.3647568851670289 
0.0001920541980955404 
0.0001920541980955404 
0.0001920541980955404 
-0.5236587086778486 
-0.03381476019277788 
-0.03381476019277788 
-0.2167912638115779 
0.1273662583163519 
0.004334564740779363 
0.2528206457168437 
0.02757813717138053 
0.2082078481678585 
-0.1801479309460934 
0.01338103118715402 
-0.06823994750098729 
-0.06366417755351876 
0.2326604188025434 
-0.04856299515632644 
0.02120843265261942 
0.01338103118715402 
0.2930837306559735 
0.4514795241600721 
0.104902151583932 
-0.135100838822317 
-0.135100838822317 
0.1143259487638948 
-0.3434665379105032 
-0.6426289576787744 
-0.08385888658521851 
0.5057295764858041 
-0.1133869964602832 
-0.16319442949448 
-0.16319442949448 
-0.9367092148881615 
0.003412670773614956 
-0.2025143880420625 
-0.002121664502931735 
-0.496263518271728 
-0.1497266713716663 
-0.1497266713716663 
-0.1230638657128512 
-0.3655914261453646 
0.09156488539923455 
0.07974906003924 
-0.05643246908373496 
-0.3146686053140649 
-0.2905075917979286 
-0.3567676847824038 
-0.3898078144299782 
0.1933382085372705 
-0.2587128330212768 
-0.3888919213381036 
0.2252049568384079 
0.01353872730475127 
-0.3663427730615259 
0.08910486028406367 
0.2341815260367942 
-0.2361892619975597 
0.2535073632865538 
0.005030551856043322 
0.1070221449497397 
0.005030551856043322 
0.02358327738905699 
-0.4827112167150728 
-0.6628280127696694 
0.07288232558244991 
-0.1572410813489504 
-0.2255753821534278 
0.0679716903781654 
-0.8002523394029581 
0.8611581800640342 
-0.1867647577563485 
-0.2531675591719212 
0.2464192023805983 
-0.6983604658376351 
-0.1572410813489504 
0.1393776581631243 
-0.3105350764280279 
-0.1572410813489504 
-0.1572410813489504 
-0.1570594495280235 
-0.1705382005189044 
0.1527246899743568 
-0.04125587537115904 
-0.08947005590932067 
-0.7273463030646837 
0.4825664127511285 
0.161259824131827 
0.1614559130484513 
-0.03083271359464206 
0.1021319495354884 
-0.4287304619319734 
1.083305067116295 
0.4794070638510707 
-0.03083271359464206 
0.002660259120304323 
-0.03083271359464206 
0.09094963938586383 
0.02097120839067168 
-0.07680608636854375 
-0.01810490855768312 
-0.006522715437470334 
-0.2650714987196447 
0.005982067715965406 
-0.2833649611946824 
0.005982067715965406 
0.2438697314954477 
0.129050875922504 
0.5134467536659013 
0.3653728734310172 
-0.08073317386836126 
0.2035480666192848 
0.2862523135319368 
1.191054072438329 
-0.1817866886472314 
-0.04925587386146905 
-0.04925587386146905 
-0.5574268210894983 
-0.03029498860646474 
-0.1765630900839274 
0.3099233257516564 
0.6912965250779344 
-0.04925587386146905 
-0.1056657109137991 
-0.4556939572407403 
-0.9047107048719069 
-0.574419126528907 
0.1118599637145735 
-0.04925587386146905 
0.9136860317751564 
0.2401589651811051 
-0.1009715777676739 
-0.05426342965599066 
0.1292551854967751 
-0.3715166471837409 
0.1282349003819525 
-0.1867699104788034 
1.090302062044976 
0.6010713164279744 
-0.1113210703940477 
0.9745261425760759 
0.127255283193749 
-0.02849659732087659 
0.2086421855265035 
-0.02849659732087659 
0.1097472038410438 
-0.02849659732087659 
-0.02849659732087659 
-0.006337006491442911 
-0.01269724047376907 
-0.03221700630629987 
0.01953260261031252 
-0.006337006491442911 
-0.006337006491442911 
-0.08293633741768607 
-0.06757346490966996 
-0.124706815455744 
-0.06723742442403489 
-0.124706815455744 
0.2795125239274632 
-0.1984609187258974 
0.7626075422672485 
-0.3060796361719472 
0.2291932812992607 
-0.3292227693713268 
0.4330302902646007 
-0.2011223369411368 
0.1787420822469674 
0.3982081090144257 
-0.124706815455744 
-0.04165228276538829 
-0.01902734943886578 
-2.060442753245553 
0.660902647963308 
0.3942745543551072 
-0.7203088744763035 
0.3157298855639175 
0.382992376049161 
0.4694210430477296 
-0.2024105166157164 
0.5259662192564125 
0.3942745543551072 
0.3940293175896251 
-0.5100578823427163 
0.0109706389208737 
0.01885172425839619 
0.3845961109827738 
0.07082029532329469 
-0.01336262885228589 
-0.1698434530219602 
-0.5256808446535997 
-0.307866736643077 
0.04228206211978407 
0.05143892383860313 
0.03370919692013572 
0.1197546718345808 
-0.1392404761628274 
0.1187884561669611 
-0.07252009583282794 
0.8421215045847157 
0.05857069836054995 
-0.9700826922772465 
-0.8519985273135452 
-0.08902955589619328 
0.594301875130065 
-0.3570301725618957 
-0.308229601331018 
-0.2232287494341267 
-0.1102922982628526 
-0.1102922982628526 
-0.6405755565985097 
-0.945737074421206 
0.1285746271665335 
-0.226092621113753 
-0.4022277661389941 
-0.4453858602105984 
-0.0403859100808748 
-0.04179424299477184 
-0.8320781067558868 
0.06825418556894287 
-0.0403859100808748 
-0.0403859100808748 
-0.1482023057925981 
0.1596781488625597 
0.6025240924409967 
0.5552517828817064 
0.2291978629483404 
0.3041082193085788 
0.1540870209996371 
0.1592032003055115 
0.06919633594451369 
0.1072881071413604 
0.1233231135305451 
-0.01926881359809664 
-0.009866773752709803 
0.0629068360644971 
0.7327102805700961 
-0.01561180898612193 
-0.01561180898612193 
0.2799970574884734 
-0.5585645663785883 
-0.8666687247142252 
-1.302247232461794 
0.143855628467367 
-0.3269071254280379 
-0.1385802323697815 
0.697542588379263 
-0.09328646940133653 
-0.04799996222847293 
0.2505115025189384 
0.4434442416413778 
0.14946815895725 
0.1772152116292568 
-0.00673268453192048 
-0.2195617148906149 
-0.06468970808845381 
0.001818999746447837 
0.001818999746447837 
-0.00458228748321779 
-0.354060725054066 
-0.3516160038925449 
-0.7618624902115729 
-0.3411004350656318 
0.09741620758727797 
0.4886101997375116 
0.5544707611679707 
-0.1092254683698677 
-0.2754536373156423 
0.3209408454688444 
-0.7349753713756392 
0.291427308401807 
-0.2184808077344631 
0.2616646067704164 
0.5086792050178617 
0.745058157069631 
0.3209408454688444 
0.6129032934701317 
0.1207464862944657 
0.3003112768682162 
-0.3949100844060106 
0.3348149300431055 
-0.2694954271304384 
0.5335610005967703 
-0.7098806723138085 
0.3209408454688444 
-0.05008654200029175 
-0.200035945093794 
-0.2956440138548412 
5.939106317973505e-05 
-0.05368434072446585 
0.2477726142246118 
-0.426996807086695 
-0.02856893520389227 
-0.3405329872188641 
0.1119758637642589 
-0.1326847708037202 
-0.5629603104528556 
-2.185512324493972 
-0.547309121339968 
5.939106317973505e-05 
0.1636112057173108 
-0.264982449538323 
1.422888985736288 
0.2137217767928685 
0.3603525756222186 
-0.08721817155448693 
-0.07076848411991633 
-0.058092512016811 
0.3621842130111534 
0.3621842130111534 
0.04499770221204456 
-0.05489365571041377 
0.2281075055400566 
-0.007114880750605238 
-0.005705756262436423 
-0.4219929039282763 
-0.7443625450914326 
0.06787848195647382 
0.2440080919571342 
-0.05283856808384094 
-0.0835118627034455 
-0.687008353230509 
0.2437553052162575 
-0.01939688313129589 
-0.01939688313129589 
0.342707103572049 
0.2663980438455971 
0.7652324031640421 
-0.8219322252609415 
0.04248912804582287 
-0.01939688313129589 
-0.3803492477888794 
0.02534321638866027 
-0.03622851202462591 
0.2939483968635753 
0.1636769244085632 
-0.01939688313129589 
0.004708599755388725 
0.2186879771285043 
0.9276836555176393 
-0.2790390913798569 
0.1482435366347311 
-0.1855420347708956 
-0.2311331303342355 
-0.01639486415042976 
0.3604711159987297 
-0.03607558695498773 
0.108160737228514 
0.2496393611175506 
0.06873387288577865 
0.3999221555158032 
0.03943441977120219 
0.06437406133967835 
0.2219032520142211 
0.3642402058219996 
-0.3524156087606765 
0.02012110465823572 
-0.169976927650251 
-0.06198238162759132 
-0.2462119607048124 
-0.0504215478103729 
-0.2462119607048124 
-0.3083815094663277 
-0.5990841437173987 
-0.6571655130774404 
-0.2462119607048124 
-0.2462119607048124 
-0.3038975356592474 
0.4010445808045786 
0.02070908130869051 
-0.307977720427576 
-0.165222962386434 
0.4513254276419871 
-0.3674780062209308 
-0.3505660897248962 
-0.1830908386956031 
-0.1357992224079776 
0.6519069348824064 
-0.3203720820748066 
0.5159522894623848 
-0.4203554422111131 
-1.841369143499356 
-0.08731693180627965 
-0.2501773925362172 
0.0008641538777465308 
0.0008641538777465308 
0.09518970247390977 
0.1583380525550541 
1.268021311560519 
-0.598653715388147 
-0.5809580244495238 
0.1849073199640196 
-0.04143567008958493 
0.5396095250454446 
0.4740842198916756 
0.0008852718539257364 
0.0008641538777465308 
-0.1674428774545781 
-0.1882855414526023 
0.3970291944243428 
-0.9891800207503046 
-0.1706158452668806 
0.5358051926195638 
-0.3920759934749023 
-0.2975215458311081 
0.2781266443697404 
0.8045939703420328 
-0.7904785997815964 
0.2781266443697404 
0.2781266443697404 
0.3399080218836356 
-0.06259714963743473 
-0.06160488057459015 
-0.06160488057459015 
-0.13843196975691 
0.003244481291833674 
-0.132873408919201 
-0.3123624753263999 
-0.1562518659618063 
-0.2319168113981057 
-0.3395182836656319 
-0.2154494460471064 
0.3759968747865159 
0.338577657711412 
-0.3054071485255271 
-0.3308131137372016 
-0.2196141684433748 
-0.1985559358917499 
0.2547359084864154 
-0.0669208966936003 
0.1592361967805384 
-0.09249567168840149 
-0.3256665147313046 
-0.844440091706813 
-0.8147610574890047 
-0.3155274660607222 
-0.5968930950862271 
-0.3218725029565198 
-0.06734367238097684 
0.2370965445028265 
0.1130454179720418 
0.03080217579585363 
0.6523676222833702 
0.03080217579585363 
0.03080217579585363 
0.03080217579585363 
-0.03599856599067566 
0.2684364333785836 
0.03080217579585363 
-0.05153204290984153 
-0.07795153617841442 
0.3008791332364416 
0.5939871232373319 
1.152275879061321 
-0.04445686609901347 
-0.04445686609901347 
-0.4645979223453265 
-0.060793362992379 
-0.2675270022003337 
-0.060793362992379 
0.4817997591602964 
-0.1900378454224914 
-0.1900378454224914 
-0.1900378454224914 
0.02485140987118222 
-0.1595997141962418 
0.02552058064567149 
-0.1579006671041162 
-0.6576672187525916 
0.341253481250276 
-0.1579006671041162 
-0.2557357465632992 
-1.012054400072399 
-0.1120155752100709 
-0.3214299062681854 
-0.1865060404790503 
-0.7198266944159689 
-0.09073845291078278 
0.773591111331499 
0.6542637570061417 
0.5782102652799864 
0.3003985804155567 
0.461405077570976 
0.09364932224498304 
-0.006839721126337961 
0.2820267406339134 
0.3916356949779103 
-0.1053605569564321 
-0.1053605569564321 
-0.6757621933369159 
-0.1415972703680213 
0.1424161885684802 
0.3712733282805711 
-0.0629844015697115 
-0.1053605569564321 
0.09522522014526366 
0.09128773395451283 
-0.12232691305281 
0.09140668094101313 
0.09522522014526366 
0.404131578601531 
0.404131578601531 
0.4579186149665788 
-0.3544586896609397 
0.1917839615939517 
0.1917839615939517 
0.1917839615939517 
0.1917839615939517 
0.1917839615939517 
0.287453061502997 
0.694024640571844 
-0.3638608595764628 
0.5498261956002157 
0.01457696565870126 
0.8029364355822055 
-0.0817988373376725 
0.1917839615939517 
0.3237833477597395 
0.1546453073953424 
0.4173712115568936 
0.0570989987901743 
-0.07443121505276329 
0.3103941026109953 
-0.8794673120329959 
0.1717790322747549 
3.859964588428963e-05 
3.859964588428963e-05 
0.1860260402022091 
-0.4462416764596298 
-0.115006398736081 
0.1260136525206892 
3.859964588428963e-05 
-0.002389410310455025 
-0.7064438605630621 
-0.259515271641396 
-0.1028332364594 
-0.1068235082868794 
0.2877908788758895 
3.859964588428963e-05 
0.1534280339817259 
3.859964588428963e-05 
3.859964588428963e-05 
-0.007199892564317042 
-0.6359657111792536 
0.02379607696489401 
-0.3328826275550426 
-0.2966341853624876 
0.04501969701456922 
-0.02203792507838681 
-0.0429013874017248 
0.442919523665225 
-0.02203792507838681 
-0.5548192625224359 
0.3242838332216298 
0.4167263952210779 
0.3194992529160053 
-0.2055992501095681 
0.08420488086062047 
1.250065534232776 
0.3240393669528782 
0.5416287846250936 
0.7120079531021609 
0.4275251342996802 
0.9429038532907239 
0.3028192456156439 
0.7568433662655758 
-0.1121896241452803 
-0.3669815239371422 
-0.5841849664695902 
-0.651336876327205 
-0.4614082720954165 
-0.3925359312919738 
0.1489122471608208 
0.1237087470800281 
0.1914909041850634 
0.6132801864962641 
-0.1807363310162143 
0.5835288968887137 
0.5713468486137128 
0.1960706642387103 
0.3809893450128469 
0.02440142807434117 
-0.03337381832704784 
-0.1368420836072514 
0.1580930671153969 
0.2952748110327857 
0.4851055242050757 
-0.4493291501906901 
-0.07366352946345599 
-0.02968104950100552 
-0.2460032869184483 
0.1613465001247751 
0.2871111921297982 
0.1165566652909724 
-0.5991133963184658 
0.04788948840221489 
-0.4295205294529311 
-0.9878991035399225 
-0.1739438392575131 
-0.590637799772903 
-0.01733106773315859 
-0.02188791284880277 
-0.1958743745081732 
-0.01218446650165475 
-0.1470862919924696 
-0.520509446639087 
-0.2243410302846088 
-0.4782751583296189 
-0.4932364056797298 
-0.03178351575969263 
-0.06058461973296095 
0.4046484773389312 
0.1073727235309137 
-0.4315816882542064 
-0.2806355170507295 
-0.5206650816113465 
0.01101306244405366 
0.2429949822933554 
-0.09998209166449337 
0.09830844442147685 
0.2880563032460022 
0.2937168063121477 
-0.03178351575969263 
-0.1191287399618022 
-0.03931259264979949 
0.1444079230811431 
-0.1639037259932526 
-0.1983576290381343 
-0.09717791674925508 
-0.5012325495109827 
-0.3162425289449575 
-1.18441748060073 
-0.6721544690940816 
-0.1186364047688542 
-0.09917641945603506 
1.096904972943706 
0.2547690976694947 
-0.09829671264209279 
-0.001473070807643298 
0.1247263790664195 
1.056445494697651 
0.204179468507992 
-0.1567304009120223 
-0.1177516910847394 
-0.09460953114907844 
-0.08558103026764431 
0.560057992987759 
-0.09460953114907844 
-0.05970853879258343 
-0.05352660133838655 
0.3487904882163813 
0.4588960672713137 
-0.01065137510363683 
-0.8289955890259162 
-0.03195522821612468 
-0.1203389091007103 
-0.3798480595134929 
-0.03188036747512545 
-0.06909053178790985 
-0.1554965305489249 
-0.128269913109986 
-0.09775549665364078 
0.2528455361457647 
0.2528455361457647 
0.2052637652410522 
0.5474473072443446 
0.576350964087283 
-0.03287062087269421 
0.1165685125203637 
-0.7636630751358687 
-0.1378765402902055 
-0.03287062087269421 
-0.02762124839396171 
0.05327680667457289 
-0.1896238284030226 
0.1597790451075543 
0.001760881528992925 
-0.3227707947087304 
0.0497103746714705 
-0.2769353219240719 
-0.03193129653187569 
-0.4791387906951121 
0.3527984217402999 
-0.1237409347001532 
0.1535576852573297 
0.1251874260147789 
-0.2096749629407264 
0.384391851758358 
-0.5843418186948076 
0.4040665080508481 
0.1873770112983878 
0.04785637162329696 
0.1972955665480105 
0.2858120508245439 
-0.5992928796863025 
0.2311122154961761 
0.2847358020022616 
0.4865024925471417 
-0.09129411592432982 
-0.5707252377611248 
-0.4905664737513135 
0.2230673661457024 
0.3259092674477236 
-0.04707703251878947 
0.1908129178276259 
0.2311122154961761 
0.2019050959514355 
0.1117331140806978 
0.202042943062745 
-0.1338586968059253 
0.4883144644037953 
-0.0408026769002735 
-0.3586272603119109 
-0.1640362733444856 
-0.1496765499989476 
-0.06268465011558724 
-0.4958425347372006 
-0.446260231429784 
-0.2291807328207376 
-0.2297604414038231 
0.006976120464842656 
-0.580156895533789 
-0.5597648388496745 
0.05086775917807208 
-0.03919192790722194 
-0.01623109741910765 
2.04881634056313 
-0.2352618050628665 
-0.6284937681778472 
-0.02663533997888835 
-0.03022563875835572 
-1.390474450372221 
-0.1663614962539789 
-0.03453265998264385 
-0.2337661592233919 
0.2286274566140754 
-0.7001388344223907 
0.04042756083850284 
-0.2045507243712205 
0.0240895348038431 
-0.604925497033475 
0.08902531239582548 
-0.03615854502377677 
-0.03331584392978792 
0.1041414760475803 
0.00631582540117681 
0.00631582540117681 
-0.2996879349721692 
-0.3658389741157065 
-0.6896070858273098 
-1.512558456462922 
-0.5445587756784122 
-0.8936446755030396 
-0.6580153238425311 
-0.4048261588224121 
0.1746370606734015 
0.3490050007831742 
-0.2371760289551174 
-0.2371760289551174 
-0.1006486811755199 
-0.2371760289551174 
-0.2967458387022747 
-0.06633071527330014 
0.04811095878587289 
-0.1834454160031071 
-0.2955548076282066 
-0.08715990020262838 
-0.1834454160031071 
-0.1834454160031071 
-0.4715391359160168 
-0.1222224134255446 
0.02884795388790305 
0.4958191088672453 
-0.4888489779187021 
-0.1834454160031071 
-0.1834454160031071 
0.1034317909282661 
-0.2275749080138707 
-0.5440843297847769 
-0.1177066577549192 
-0.2783359124592228 
0.6938617769157592 
0.4149497610371602 
0.2141855099636313 
1.079648187135242 
-0.0026419094880374 
0.2028893242464803 
-0.5750685293063847 
0.0002088069184788856 
-0.0026419094880374 
-0.1857203665559903 
0.0177290104057037 
0.0177290104057037 
-0.02024730016400365 
0.131940541275754 
-0.1010418477219397 
-0.5470094718822608 
-0.9708057390750422 
0.2938403965281723 
-0.4694435201164984 
0.4733992344106766 
-0.1178982008116287 
-0.3817220841538863 
-0.4400871563889093 
-0.4694435201164984 
-0.4694435201164984 
-0.03129891174652597 
-0.06543450790513437 
-0.03129891174652597 
-0.03129891174652597 
0.08122935551271654 
-0.1317839054562202 
-0.0787100217746013 
-0.03129891174652597 
-0.03129891174652597 
-0.5865549070529653 
-0.03129891174652597 
-0.3155234733962879 
-0.03129891174652597 
-0.03129891174652597 
-0.03129891174652597 
-0.03129891174652597 
-0.03129891174652597 
0.3180506807969253 
-0.1242103251775829 
-0.03129891174652597 
-0.06498345411159681 
-0.3101629454001343 
-0.02614712741983815 
0.1358985331604891 
0.2845749331593443 
0.2627831086736945 
-0.0255004342451184 
0.05964927669131231 
0.2701180500394265 
-0.06390509602114995 
-0.1151037171737347 
0.4869825815922717 
-0.06390509602114995 
-1.156637467934853 
-0.06390509602114995 
-0.8516601582755701 
-0.02283139510183508 
-0.916794730699545 
-0.3096919178333581 
-0.0312165005121585 
-0.05247357592758253 
-0.1017657797804308 
-0.02283139510183508 
-0.1328379504344948 
-0.04898435236076033 
0.4796180745351409 
-0.01222543401998819 
0.04377451547370326 
-0.02283139510183508 
-0.0284106592988253 
0.1479213180273429 
0.4090045930842603 
0.6650521709691044 
0.5001329369723549 
0.1450558177627632 
0.1971330120150232 
-0.2858850163164839 
0.6233871190281024 
-0.5273601162933804 
-0.3348277217468417 
0.8513898825299424 
-0.7094509316750107 
-0.4559371661908877 
0.4843662024451624 
-0.2003064239622513 
-0.4379178366524513 
-0.3533982194149337 
-0.3263322813494955 
0.3554417205250268 
-0.4659069445613538 
-0.007575189379054079 
-0.06677731041890764 
0.150540825720862 
0.133660001379885 
-0.04941018276132554 
-0.04941018276132554 
0.9152091535682675 
-0.7041877804209784 
-0.04941018276132554 
-0.04088281392104183 
0.2339649407111435 
-0.2709014515359417 
-0.2213270149547339 
-1.000341106375576 
0.114043333232908 
0.05030753123454267 
0.114043333232908 
-0.1206075064955972 
0.2435229454521872 
0.01456886368739591 
0.1663954182271156 
-0.1505015664875376 
-0.05089807513790841 
-0.4722548776972033 
0.3029088855958869 
0.08639287449663254 
-0.05510912618590445 
0.02015536207366914 
0.4751456444182527 
-0.8945898087729354 
0.1003757935387593 
-0.02066807910686832 
-0.3616574446531309 
-0.05962728469345181 
0.3237718228716099 
0.2051960940811113 
0.4116002219366208 
-0.2890131252998483 
0.8260946041363739 
0.2385484750640701 
0.4474821332654477 
0.6296886340100416 
0.1250269562491041 
0.2581896222619421 
0.1250269562491041 
0.4118854639641022 
-0.3080925153544688 
0.04570559627691535 
0.1255355857576648 
-0.02016728661949099 
-0.1351379357333486 
-0.02016728661949099 
-0.3870238077832299 
0.07027796056370887 
0.2758579487765584 
-0.02016728661949099 
0.04827463810353688 
-0.005943852902878336 
-0.03305751924749992 
-0.02645286785374718 
0.01902286303200162 
0.1086592681523683 
-0.2017693215755471 
0.6450434411252591 
0.1676146178366281 
0.02712947734572905 
-0.03146663643568054 
-0.002040310738843424 
0.318935693451606 
-0.0006258622875622972 
-0.001656047377342402 
-0.001656047377342402 
0.4158639875576634 
-0.09532554450018799 
-0.5871161462155596 
-0.001656047377342402 
-0.001656047377342402 
-0.001656047377342402 
-0.3843049662451986 
-0.05926466418495153 
-0.06065459889054831 
-1.387101142046038 
0.2988260784566519 
-0.06065459889054831 
0.3436813888006436 
0.653361719107624 
0.1645428000441982 
-0.2886712587467427 
-0.1552934367741496 
0.905647181911084 
0.1062590933807296 
-0.2791917715138357 
-0.1552934367741496 
-0.1552934367741496 
-0.2491894220170827 
-0.1552934367741496 
-0.5291278613518422 
0.654234258852792 
-0.2993160001561415 
-0.6003991313910897 
0.6631539328264238 
-0.1303498474694154 
-0.2734965702727991 
-0.08224159714195535 
0.02210369863452588 
-0.1292307799789858 
-0.2803243901636909 
0.4648301221909738 
-0.6761509108564754 
0.1845285356345522 
-0.1301280856652793 
0.1578535448629289 
0.375076119596519 
-0.154044590405302 
0.8347253402532639 
-0.2081670646557405 
0.9910582683790692 
-0.02690231255673946 
0.1909169483429346 
-1.161318131533514 
-0.1483660733993692 
-0.4208703003940432 
0.5498171333538792 
0.6143245848018598 
0.001525972004628107 
0.1302050407369305 
0.2429049238353349 
-0.4121745465549592 
-0.7374507744458885 
0.3646189850745516 
0.002418608404485841 
-0.3639067567583826 
0.002483684868987956 
-0.08842292683319715 
0.5990011747871113 
0.001525972004628107 
0.2658578926232338 
0.2037925068125438 
0.3235870358909359 
0.4130988502557073 
0.5205571252202297 
0.3235870358909359 
0.5877439966949136 
0.3404199334321376 
-0.2650252664390634 
-0.382145588086941 
-0.244145668523891 
-0.2309361258853792 
-0.4961043331393991 
-0.4961043331393991 
-0.2805548073962951 
-0.5903904006709448 
-0.07659627568558612 
-0.2805548073962951 
-0.51291305979638 
-0.2582917023419344 
0.03523955570398231 
0.001395576864958356 
-0.2805548073962951 
-0.3887193222093958 
0.1243627008444442 
-0.2805548073962951 
-0.3232287620242565 
-0.2805548073962951 
-0.2569968249342519 
0.06280703263172994 
-0.7390727597297414 
-0.4466304913342416 
0.1945821315176206 
-0.05180969825077979 
-0.3141322859906568 
0.04421644574130108 
0.2877253496977058 
0.2142989276666367 
0.3358492655927798 
-0.447759240149578 
-0.03321601678406505 
0.1022832430141141 
-0.5739433372343939 
0.304436440431572 
-0.1426927931028163 
-0.01101451109884458 
-0.05357043133438084 
0.1664156529417201 
-0.0003612885933009401 
0.6306030324736939 
-0.03513317578130706 
-0.7180236592970226 
-0.08726207103817125 
0.6232745744579216 
0.3272452586844842 
0.214628327494723 
-0.3956714788145937 
-0.06713828578781025 
-0.01543814547032367 
0.1017572790995844 
-0.08132350082028994 
-0.4495379716803346 
0.1283122689768177 
-0.06713828578781025 
-0.8209664213979039 
-0.06713828578781025 
-0.115870510693557 
-0.1573389541323015 
-0.08044857305227369 
-0.2869478595653077 
-0.06713828578781025 
-0.5645591932718638 
-0.07605809526288269 
-0.1110404699516504 
-0.06713828578781025 
-0.1721661136363382 
-0.3627523784006338 
0.2831080643748255 
-0.09218406686779229 
0.1566043378672768 
0.0282335135292026 
-0.002700131943025385 
-0.5448935108157511 
-0.002700131943025385 
-0.3706710615629189 
0.1538412171620357 
-0.002700131943025385 
-2.317099767545713 
-0.01710107719520939 
-0.6009443313456231 
-0.5348023438743404 
-0.130379516369871 
-0.6841026513730434 
-0.002700131943025385 
0.3135174205493061 
-0.6474661827637882 
-0.05455015830473264 
0.1105053737944477 
0.06180102892022813 
-0.1031562079992807 
-0.3573164215551516 
-0.2830245303532822 
0.1644281207554923 
0.1644281207554923 
0.0428178829369351 
0.1648097653840906 
0.06676656589573141 
0.9246018085800083 
-0.3724253570987292 
0.08527498053298484 
0.1644281207554923 
-0.2289831042396414 
-0.4979887794853858 
0.2001906819322133 
-0.2843220841268604 
-0.2289831042396414 
-0.2676720635526765 
-0.3575803484938316 
-0.7554446557791742 
-0.1931363069739558 
-0.0118986166473273 
0.2118466671609686 
0.08500943773958813 
-0.0118986166473273 
0.6703967486368104 
-1.523639215934026 
0.1013581941996552 
0.05679893399093641 
-0.0936050894479903 
-0.5359902652692294 
-0.06085106101623611 
0.01567520411741708 
0.08028868511907894 
-0.1668964594835982 
0.2588005198547876 
0.4209372693364992 
-0.1493551848549574 
0.1591877211633617 
0.03226623406777471 
-0.784668594649533 
0.1662596393275003 
-0.4691206085543732 
-0.02312224180414785 
-0.1748523812492982 
-0.1810806256750782 
0.4741485434678422 
-1.211238644897953 
-0.02312224180414785 
-0.07182033894287254 
-0.3663030184000917 
-0.2547416784085031 
-0.6026583413860129 
-0.3547174389579844 
0.2322884853223668 
-0.1329839027799596 
-0.0429347903654416 
-0.2562959256557732 
-0.005640227175214162 
-0.9518884257625397 
-0.9835000483932288 
-0.005640227175214162 
0.6129708803898629 
0.04508822369865029 
0.04508822369865029 
0.04425953200868374 
0.4149132872271212 
0.3997410383949667 
0.2983454905548327 
0.04508822369865029 
-0.1883921704566879 
0.4181673344857568 
0.05541424431733425 
-0.4774654448661672 
0.0676932895454652 
0.6761982633896451 
-0.0593427615196028 
0.5411037307151698 
-0.2201947287774671 
-0.2280789940723095 
0.1829863511796453 
-0.02353902064579969 
-0.3332520649815076 
-0.1136365783219845 
-0.3218261210058482 
0.2253942369653776 
-0.2723950119142651 
-0.005931033866967791 
0.6907739656248302 
0.0088137204537619 
-0.0815039796571507 
-0.0815039796571507 
0.7197085766511385 
0.3973345801856587 
-0.09320570046108728 
-0.0815039796571507 
-0.1166186890558999 
-0.0551741999589512 
-0.6332533730134802 
-0.2562938838662495 
-0.5826695051288228 
-0.353393525692459 
0.0475292407941062 
0.4676667287896634 
-0.005696417168725773 
-0.06770230815046495 
0.1172211817756779 
0.006008087585449857 
-0.08465750622474989 
-0.167456526883202 
-0.08646198514211598 
-0.6410770028488101 
0.3601765825556976 
-0.04326123153355427 
-0.03470327349127603 
0.9785493626321848 
0.7134077802818863 
0.4465453866060788 
-0.03645461623833701 
-0.05615338587838891 
0.07559381878578221 
-1.186775794669267 
-0.03783401046442715 
-0.03470327349127603 
-0.03470327349127603 
-0.04969007074556729 
0.1302830962412909 
0.3464506453420268 
0.1302830962412909 
0.3891128581296889 
0.01605542198995578 
-0.1850036856851562 
0.0005435249223725359 
-0.1226982878325087 
-1.396987535513452 
0.0005435249223725359 
-1.371272740996176 
-0.1416769971810099 
0.0005435249223725359 
-0.1402090822029732 
0.1803151794721107 
0.0005435249223725359 
-0.1969288114083833 
0.0005435249223725359 
-0.2119578705973434 
-0.02693890302582337 
-0.4218501190010204 
-0.373542849088585 
-0.02693890302582337 
-0.03505863039912261 
-0.1126141741373613 
0.0717269278611662 
0.1483852956730898 
-0.0266561047610906 
-0.4336346843534004 
-0.02693890302582337 
-0.3121687961300902 
-0.5105465326197457 
-0.08367132290130057 
-0.08367132290130057 
-0.08367132290130057 
-0.1977911845392046 
-0.07105540070653853 
-0.510790986804633 
-0.01671021858179934 
-0.01671021858179934 
-0.01671021858179934 
-0.4879874480207162 
-0.3344179000873101 
-0.2652793246514441 
0.4226812363704808 
0.3364079277919982 
0.1550830885249015 
0.04833979385384092 
0.09035974189420798 
-0.02139531958759873 
0.1706395753902482 
0.216852323377888 
0.1706395753902482 
-0.06462951880626805 
-0.4433782618494455 
0.1874496661902466 
-0.07051680055810071 
-0.5828515141084212 
0.3928339234680326 
0.3716883365107568 
0.4597311991784467 
-0.02097495305461025 
0.3052143013895295 
-0.7808654894914709 
0.2569344457711717 
0.948156968205911 
0.5645648462095962 
0.1038585256238944 
0.0878648625051212 
-0.00959091680837796 
0.1039938686792077 
0.1103441724776842 
0.1478971911720416 
0.7258101196858622 
-0.2238250177674171 
-0.04560825767022672 
-0.04560825767022672 
-0.04560825767022672 
0.1892201177174071 
-0.03199586349931999 
0.0007044429704711428 
0.0007044429704711428 
1.097053340304752 
1.45365253128514 
-0.1870515219632633 
0.318606456195032 
-0.2364802305454013 
-0.2407491137111773 
0.02974749130383058 
-0.2781011802368721 
0.318606456195032 
0.4115584935997532 
0.3251753085229019 
-0.09387423239360375 
-0.1132664390846552 
0.1423961536807813 
0.0930524941874853 
-0.094196982663389 
-0.03077347077381939 
0.265844629761744 
-0.2442000087807083 
0.08849810411230905 
-0.03077347077381939 
-0.1278398245153905 
-0.1255936480654699 
-0.03394822910734283 
-0.1132278503475452 
-0.01726609225281468 
0.1321972457645544 
0.1108706484205466 
0.01778401744754318 
0.06290824682021896 
-0.5244322333109687 
0.8587897283087512 
-0.1231052962162444 
0.05828205999059882 
-0.04373704739754794 
-1.184041981145071 
-0.1307375965138451 
0.2421321751993908 
0.07480568340308036 
0.1418191542414524 
-0.1015633558822499 
0.03407830620881286 
0.03686471378587908 
-0.1080363912270716 
-0.1080363912270716 
-0.1274209313584009 
0.0815153268251039 
0.06004211341438782 
-0.3058616694580297 
0.001058165724349403 
-0.06673502495103446 
0.4318530827754101 
0.7373127558464848 
0.6971936064674227 
0.1503935742158177 
-0.1553022370980438 
-0.04412963181779968 
-0.07813826329991569 
-0.008120381283447432 
-0.05906521477332983 
-0.06164460226398754 
-0.144064230682113 
0.01912163240444181 
-0.0008648494902778141 
-0.187461351676059 
-0.5278592695401834 
0.3462327573004566 
-0.06853605928933884 
-0.06853605928933884 
0.2723967545028956 
0.3585879847200537 
-0.02002950545161431 
0.06142689510973712 
-0.163042932016036 
0.1159712199483745 
0.2136907634649824 
0.519073271589063 
0.2544721321708594 
0.1065842423886001 
0.1065842423886001 
0.2806842509924133 
0.1065842423886001 
0.02163240816427049 
0.3364602943095641 
0.2535168514263959 
0.2223800362031972 
0.5457652741906073 
0.1610381031195959 
-0.1564212303822839 
-0.64697558179257 
-0.08871947215097387 
-0.3972740630288088 
-0.9010160275547956 
-0.1806073215916112 
-0.1806073215916112 
0.3703795962545423 
-0.1806073215916112 
-0.5687950101480135 
-0.1810200923481992 
0.06026152936023986 
0.2579897568644135 
0.08562774558771777 
-0.1142454561563765 
-0.1121476032568249 
-0.1121476032568249 
-0.1121476032568249 
-0.1708559342002983 
-0.5328846035231483 
-0.09428027389919484 
-0.4636946183672592 
-0.1921821289064121 
-0.1955065988900459 
-0.08010019043379432 
-0.08010019043379432 
-0.2098466131393931 
0.7991311082844327 
-0.1656666100548499 
-0.348326778176677 
-0.09957462966196523 
-0.3234035632576044 
0.08840955150002976 
-0.1161885619695878 
0.00460372300086022 
-0.1692959794183988 
-0.3044641624444853 
-0.2113528187359408 
-0.227009826201375 
-0.5746577577473001 
-0.4456512104708508 
-0.1004775807109117 
0.3228152572124232 
-0.10033020762678 
-0.4104586297182896 
-0.2528206931752895 
-0.09876320987439921 
0.07376499934470833 
-0.2999659189746566 
-0.09876320987439921 
0.1810865246156283 
0.444920735002086 
-0.02931410142901589 
0.5135684000943154 
-0.4184477646223684 
-0.02931410142901589 
-0.1443626229853656 
-0.03417381956732464 
-0.6145797911128674 
0.01609291355117522 
0.6747731939375283 
-0.1293135145608612 
0.01609291355117522 
0.1866703170583891 
0.3957811790474027 
0.01609291355117522 
0.06397576028172013 
0.5290196154757596 
0.2739426805675934 
0.01609291355117522 
-0.5125647117828912 
-0.1625399950726471 
-0.2948808349335693 
0.02921340852717744 
-0.08447767331552609 
-0.02790606303558935 
-0.08798350757561904 
-0.02790606303558935 
-0.02790606303558935 
-0.2591729939558727 
0.1759848322704725 
-0.05685055091322849 
-0.06950403907560937 
-0.1070260981096071 
0.06317950006843583 
-0.07394758303216177 
-0.03663521541719747 
-1.087894129973143 
0.0725002135692055 
0.3369210308749354 
0.0939721356609341 
-0.1556162129542505 
0.1410471971354101 
-0.1588365608482727 
0.0006296302529283101 
-0.129012564939325 
0.5777902280339062 
0.9975789362063721 
0.6708372638822666 
0.2390102830824855 
-0.2631146249006504 
-0.3818996374338742 
-0.09042242787889906 
-0.8296957841756002 
0.07635245472564663 
0.0001904760808787761 
0.13440590683406 
0.05835260623358286 
0.02939101876190053 
-0.2862218992832963 
0.0001201770267701028 
0.01157261154729734 
0.01157261154729734 
0.01157261154729734 
0.1170906215446408 
-0.0845300728989152 
0.01157261154729734 
0.1636867374288235 
-0.004310822698299581 
-0.0391310618544779 
-0.0391310618544779 
-0.04496603904376003 
-0.03963614921519447 
-0.0390033410075998 
-0.4626168386101699 
-0.0766931363435297 
-0.08257362049127687 
-0.1092750290389379 
-0.3104863243559948 
-0.5084791590707906 
-0.5972874069982983 
0.1240973882871705 
0.01651443733993342 
0.2353365481784512 
-0.2846039296476078 
-0.1910883741018843 
0.09661578038086122 
-0.0933706691323252 
0.7877755704873466 
-0.7875279263531126 
-0.3430674169464689 
-0.6631396135174444 
-0.6469353649151964 
-0.5195845552442245 
-0.3470413787711931 
-0.2501355137184985 
0.1241647870527999 
0.06511580802523342 
0.06511580802523342 
-0.3472596271536375 
0.1187408496903497 
0.1667097530772328 
-0.1558207634678521 
0.06511580802523342 
-0.01821387647968561 
-0.01821387647968561 
-0.01821387647968561 
0.6784259045636237 
0.1241682211214639 
-0.7284335457491932 
-0.01821387647968561 
-0.01821387647968561 
-0.1551036491975803 
-0.1551036491975803 
0.169615199811005 
-0.0391606614064455 
-0.05435870882644336 
-0.369208187256777 
-0.907718875492077 
-0.05435870882644336 
0.234380391533341 
0.002004976517911279 
-0.2684287037215304 
-0.0581714446936054 
0.4466646325157846 
-0.2489711185360224 
-0.5877016821732838 
0.5928775711890182 
0.1605474564922877 
0.1605474564922877 
0.492489707811693 
-0.04200338529515259 
0.09530742931974219 
0.006721957678755499 
-0.02241154437330088 
-0.01173814394371921 
-0.02241154437330088 
0.4844005292175488 
0.1875165390014519 
-0.218772929616524 
0.4810851382223386 
0.2033202582089522 
-0.2622408552284874 
-0.2360206256827952 
0.1357131069139526 
-0.240283287625287 
0.09613205048490346 
-0.08841698669180223 
0.2997227229746526 
0.5265531640185704 
0.05929616093786507 
-0.5520475546931047 
-0.2360206256827952 
-0.2360206256827952 
-0.2360206256827952 
-0.2601808069363836 
-0.2696880689153696 
0.2352363387290865 
-0.9749545425656193 
-0.2984709579294771 
0.1903624801595439 
-0.6024235799138502 
-0.7344127204811899 
-0.2992290621791346 
-0.09834624092071868 
0.4723084485758105 
0.03310583852556866 
-0.2696880689153696 
-0.576918223805256 
-0.04703770416256218 
-0.04096281821690471 
-0.04096281821690471 
-0.04096281821690471 
-0.06258576125087566 
0.249899271950607 
-0.2592301702815665 
-0.04096281821690471 
0.299216346104795 
0.08406161327319796 
0.02322729101865108 
-0.07414330129846491 
-0.6042988215265984 
0.3438123785639622 
0.3346445679636099 
-0.1765123969743684 
-0.04677921481721479 
-0.7217632705894435 
-0.04677921481721479 
0.3628954446577956 
0.1134790580504992 
0.2953467975942392 
0.4881644173680718 
-0.3726327351660593 
0.2953467975942392 
0.3326834137474352 
-0.1271786019733364 
0.686479609489727 
0.2953467975942392 
0.2953467975942392 
0.2621722852857662 
0.5329309550882994 
0.1091749111978583 
-0.275599465343329 
-0.3765328123161263 
-0.2351342035129665 
-0.2943271450515719 
-0.008933424472094791 
-0.2156847899183747 
-0.004466712236047395 
-0.2955754819846567 
0.4090321263137396 
-0.2286833413760777 
-0.1403904729993113 
-0.1722009294841249 
0.4065798005146604 
-0.4468526665282463 
0.2652280357580648 
-0.29242625995451 
-0.29242625995451 
-0.171082144133993 
0.8603517355614525 
0.3588747517861389 
0.2363176073263085 
0.7299878097346728 
-0.8964064774261292 
0.007995450832850411 
-0.2922993110589935 
-0.4329292941737126 
-0.5084616298777604 
-0.1034523015247908 
-0.3046252344129602 
-0.1296627742702982 
-0.1040016021090073 
-0.03664080821044466 
-0.1040016021090073 
-0.3316222345123827 
0.04957248436904552 
0.8360647218289867 
0.3355928310496128 
-0.04814294491182997 
-0.03743941685251542 
-0.2667015078326149 
-0.1622044163609397 
0.2582601770561767 
-0.5509818619418242 
-0.3184543864365577 
-0.05258489714102343 
-0.04814294491182997 
-0.04814294491182997 
-0.3295282274563087 
-0.03633213233722389 
-0.03633213233722389 
-0.9640508121670288 
-0.4061962301520022 
-0.1363330155570559 
-0.08893216455830556 
-1.001231566761462 
-0.2264814210419284 
0.1702129258457807 
-0.04428292787257613 
-0.04428292787257613 
0.3446241776700743 
-0.0006369703231729992 
0.183014936981686 
0.6232340016169199 
0.3793359928677346 
0.9306816083067249 
-0.0006369703231729992 
-0.88610462025328 
-0.167770720801784 
0.08882066267888827 
0.1350410495393389 
0.3609340636121613 
0.1770048866827067 
0.8765314349595991 
0.4216794954705247 
-0.1997672908327768 
-0.08112526059468318 
-0.5868920408275045 
-0.3619901352910575 
-0.1324617111784718 
1.268085087137448 
-0.4748712708109347 
-0.08408628408646397 
-0.2205771088318653 
-0.6254264258634719 
0.01093275434374987 
-0.3108303650703702 
-0.08408628408646397 
-0.01675490229525026 
-0.398926391894023 
-0.7322596356619138 
-0.8165119215396466 
0.2519584024102509 
-0.01675490229525026 
-0.01675490229525026 
0.004920949035530398 
0.004920949035530398 
0.004920949035530398 
0.004920949035530398 
0.01796533429710909 
0.1216798626421036 
0.003841064243315808 
0.25605759591351 
-0.2141956898410905 
-0.154526842159823 
-0.03315972018996064 
-0.03196823405432334 
-0.7245778869538423 
0.2293827687281005 
0.0001958358510307225 
-0.1328772605564003 
-0.2772697905706536 
-0.04108192434947047 
-0.5600631396506749 
0.0001958358510307225 
-0.3993177753825513 
0.1394371078628156 
0.1394371078628156 
-0.09117578424059408 
-0.06836868980515759 
0.3065679279199057 
0.1166000591113678 
0.4480343192597805 
0.102349632783605 
0.7897444632441537 
-0.0823314522131421 
0.04701065537467047 
0.04080722906689088 
-0.4656188344241068 
-0.3772782172067371 
-0.04669741448443288 
-0.195859493290795 
-0.0823314522131421 
0.08485836605803695 
-1.034077880733883 
-0.03185770815309738 
-0.02589003572233956 
-1.319492644761338 
-0.4333675582187391 
0.06058470443627922 
0.06058470443627922 
-0.1358737123430562 
-0.1358737123430562 
-0.5547002733270007 
-0.06119358042022563 
0.5833047283147018 
0.3409167558247759 
0.07289165468957093 
0.07373157158059307 
-0.06119358042022563 
-0.5044730829401241 
-0.1126436926295124 
-0.02534304627304083 
-0.3726186457226361 
0.5989326483102133 
0.04967137069749375 
-0.03351988365900818 
-0.09633411763772874 
-0.1774158406456371 
-0.1150350675020953 
-0.0691270227371088 
0.0005022090026199416 
0.2133310871313667 
0.6604639552551643 
-0.6080053566354641 
-0.3009204242655178 
-0.2601017339104073 
-0.6496243690025917 
-0.01907885306760791 
0.3342335307674779 
-0.9375408317861604 
0.1302135606653565 
0.1761688869512549 
0.1271017877691173 
0.9921093439389151 
0.1761688869512549 
0.1761688869512549 
-0.09272593078023669 
-0.07548574298319571 
-0.1396210650652419 
-0.6251120300224852 
0.1425497442025569 
0.2817762086973164 
0.556235796190454 
0.05874305289576615 
-0.02708058555756384 
0.02097921022498934 
-0.06869880988585178 
-0.04003615180254885 
-0.03137651130778482 
-0.04973059382629227 
-0.1156586587529219 
-0.1319538880042637 
0.1055522343195492 
0.4064399878279977 
0.6368834211191872 
-0.2222667915095514 
0.1726355979680962 
-0.8913574257495362 
0.1037592452304028 
-0.03137651130778482 
-0.03137651130778482 
-0.03137651130778482 
-0.03137651130778482 
-0.03137651130778482 
-0.1495718551331047 
-0.2370657815492681 
-0.04152355352634988 
0.08316358371308642 
-0.0008471780626713012 
0.01456937651935071 
-0.0008471780626713012 
-0.569335034725574 
-0.5797982227055063 
-0.04115007011155727 
-0.0008471780626713012 
-0.0008471780626713012 
0.2225886060025697 
0.2225886060025697 
0.04256771828532715 
0.08358980019204355 
-0.05744710087056179 
-0.3872525279308129 
0.001087740070937961 
-0.4217776123423183 
0.04205186900499196 
-0.145810279807439 
-0.1151298928145143 
0.001087740070937961 
-1.112377941961073 
-0.5932991368887374 
-0.06010249098274505 
-0.1830452134138533 
-0.3026213529281799 
-0.04901171134295425 
